{"learner":{"attributes":{"scikit_learn":"{\"_estimator_type\": \"classifier\"}"},"feature_names":[],"feature_types":[],"gradient_booster":{"model":{"gbtree_model_param":{"num_parallel_tree":"1","num_trees":"100"},"iteration_indptr":[0,1,2,3,4,5,6,7,8,9,10,11,12,13,14,15,16,17,18,19,20,21,22,23,24,25,26,27,28,29,30,31,32,33,34,35,36,37,38,39,40,41,42,43,44,45,46,47,48,49,50,51,52,53,54,55,56,57,58,59,60,61,62,63,64,65,66,67,68,69,70,71,72,73,74,75,76,77,78,79,80,81,82,83,84,85,86,87,88,89,90,91,92,93,94,95,96,97,98,99,100],"tree_info":[0,0,0,0,0,0,0,0,0,0,0,0,0,0,0,0,0,0,0,0,0,0,0,0,0,0,0,0,0,0,0,0,0,0,0,0,0,0,0,0,0,0,0,0,0,0,0,0,0,0,0,0,0,0,0,0,0,0,0,0,0,0,0,0,0,0,0,0,0,0,0,0,0,0,0,0,0,0,0,0,0,0,0,0,0,0,0,0,0,0,0,0,0,0,0,0,0,0,0,0],"trees":[{"base_weights":[7.728097E-1,-3.706439E-2,8.281431E-1,-5.076215E-1,4.715469E-1,8.300016E-1,-1.6481369E0,-8.751383E-2,-2.893511E0,6.168253E-1,-1.92068E0,9.733683E-1,7.5278544E-1,7.502395E-2,-1.9397286E0,-2.064975E0,-3.066873E-1,6.7325634E-1,-1.6481369E0,9.4823617E-1,1.0296803E0,7.239044E-1,9.5547026E-1,3.254724E-1,-9.1686565E-1,5.2481025E-1,-1.7907331E0,7.079215E-1,-1.4360272E0,9.3206275E-1,1.0755923E0,4.655152E-1,1.0397195E0,7.2563016E-1,-1.375928E0,9.6465194E-1,-1.2183285E0,3.0946024E-2,3.2165813E-1,-1.021563E0,1.2767598E-1,-1.4360272E0,2.737109E-1,-3.5853136E-2,2.2991079E-1,2.9364404E-1,2.652222E-1,2.2064339E-1,3.2573155E-1,2.9182675E-1,-1.375928E0,3.1345576E-1,2.1835673E-1,2.1813796E-1,-1.3045335E0,5.2640527E-3,2.9305044E-1],"categories":[],"categories_nodes":[],"categories_segments":[],"categories_sizes":[],"default_left":[0,0,0,0,0,0,0,0,0,0,0,0,0,0,0,0,0,0,0,0,0,0,0,0,0,0,0,0,0,0,0,0,0,0,0,0,0,0,0,0,0,0,0,0,0,0,0,0,0,0,0,0,0,0,0,0,0],"id":0,"left_children":[1,3,5,7,9,11,-1,13,15,17,-1,19,21,23,-1,-1,25,27,-1,29,31,33,35,37,39,41,-1,43,-1,45,47,49,51,53,-1,55,-1,-1,-1,-1,-1,-1,-1,-1,-1,-1,-1,-1,-1,-1,-1,-1,-1,-1,-1,-1,-1],"loss_changes":[6.922881E2,2.3691232E2,1.7444727E2,5.150904E2,4.7904105E2,1.5930273E2,0E0,4.547696E2,7.920244E2,1.6466978E2,0E0,6.180664E0,5.433496E1,1.06695305E2,0E0,0E0,2.2784248E2,9.110394E1,0E0,6.226074E0,8.288452E0,7.877246E1,5.777539E1,5.678022E1,2.9075082E2,9.1926765E1,0E0,2.2404755E1,0E0,6.137207E0,5.4800415E-1,7.849602E1,1.6743164E0,6.56499E1,0E0,1.3458984E1,0E0,0E0,0E0,0E0,0E0,0E0,0E0,0E0,0E0,0E0,0E0,0E0,0E0,0E0,0E0,0E0,0E0,0E0,0E0,0E0,0E0],"parents":[2147483647,0,0,1,1,2,2,3,3,4,4,5,5,7,7,8,8,9,9,11,11,12,12,13,13,16,16,17,17,19,19,20,20,21,21,22,22,23,23,24,24,25,25,27,27,29,29,30,30,31,31,32,32,33,33,35,35],"right_children":[2,4,6,8,10,12,-1,14,16,18,-1,20,22,24,-1,-1,26,28,-1,30,32,34,36,38,40,42,-1,44,-1,46,48,50,52,54,-1,56,-1,-1,-1,-1,-1,-1,-1,-1,-1,-1,-1,-1,-1,-1,-1,-1,-1,-1,-1,-1,-1],"split_conditions":[-1.0949149E0,-5.310102E-1,2.536943E0,3.0065465E-1,2.5614552E0,4.9355263E-1,-1.6481369E0,7.202652E-1,1.9640115E-1,1.4813638E0,-1.92068E0,2.0085392E0,3.8453627E0,-1.1191325E0,-1.9397286E0,-2.064975E0,-1.0483184E0,1.5750822E0,-1.6481369E0,3.8453627E0,-1.5991887E0,2.9853024E0,1.5132285E0,1.1024702E0,-1.5614298E-1,-4.2604995E-1,-1.7907331E0,-1.0611959E0,-1.4360272E0,-1.0256373E0,-8.83403E-1,-1.5628039E0,2.8133998E0,3.8457897E0,-1.375928E0,-1.712262E0,-1.2183285E0,3.0946024E-2,3.2165813E-1,-1.021563E0,1.2767598E-1,-1.4360272E0,2.737109E-1,-3.5853136E-2,2.2991079E-1,2.9364404E-1,2.652222E-1,2.2064339E-1,3.2573155E-1,2.9182675E-1,-1.375928E0,3.1345576E-1,2.1835673E-1,2.1813796E-1,-1.3045335E0,5.2640527E-3,2.9305044E-1],"split_indices":[1,8,5,3,13,0,0,4,9,5,0,9,18,8,0,0,4,6,0,18,4,7,4,9,2,2,0,2,0,5,2,8,1,6,0,4,0,0,0,0,0,0,0,0,0,0,0,0,0,0,0,0,0,0,0,0,0],"split_type":[0,0,0,0,0,0,0,0,0,0,0,0,0,0,0,0,0,0,0,0,0,0,0,0,0,0,0,0,0,0,0,0,0,0,0,0,0,0,0,0,0,0,0,0,0,0,0,0,0,0,0,0,0,0,0,0,0],"sum_hessian":[1.5446642E4,9.878954E2,1.4458746E4,5.131454E2,4.7475003E2,1.4455366E4,3.3807225E0,4.3719986E2,7.594552E1,4.6581528E2,8.934767E0,5.056112E3,9.399254E3,4.2729916E2,9.900687E0,2.92191E1,4.6726414E1,4.6243454E2,3.3807225E0,3.508224E3,1.547888E3,8.230973E3,1.1682811E3,3.4169446E2,8.560472E1,4.153459E1,5.1918235E0,4.6038196E2,2.0525815E0,3.1202861E3,3.879379E2,2.789096E1,1.519997E3,8.229161E3,1.8111013E0,1.166953E3,1.328141E0,2.6417932E2,7.751514E1,2.946058E1,5.6144142E1,2.0525815E0,3.948201E1,3.0305763E1,4.300762E2,1.5707079E3,1.5495784E3,1.340215E1,3.7453577E2,2.6079859E1,1.8111013E0,1.4930719E3,2.692504E1,8.227592E3,1.5696211E0,1.4851031E1,1.1521019E3],"tree_param":{"num_deleted":"0","num_feature":"19","num_nodes":"57","size_leaf_vector":"1"}},{"base_weights":[6.755409E-1,6.649591E-2,7.248501E-1,-2.4753505E-1,4.0230262E-1,8.856667E-1,6.4261097E-1,-9.390301E-2,-2.8370826E0,4.489763E-1,-6.089483E-1,7.5157374E-1,9.0000886E-1,5.535696E-1,7.3327065E-1,-2.775832E-1,8.917717E-1,-3.401748E0,-5.244698E-1,4.745288E-1,-7.8709793E-1,7.7824336E-1,-1.4131899E0,8.7322813E-1,9.5247686E-1,5.976637E-1,1.104497E-1,7.3595154E-1,-1.3699012E0,-7.294501E-1,2.5906813E-1,9.933503E-1,-6.095901E-1,-3.7472453E0,-4.3077E-1,-1.0667429E0,4.9200952E-1,8.3432704E-1,-1.1587869E-1,8.5391784E-1,1.0162518E0,4.0715364E-1,9.632565E-1,7.350978E-1,5.2315366E-1,-2.099478E0,2.1481699E-1,-1.3084476E0,7.3839E-1,-3.924983E-2,-7.5627613E-1,-7.50328E-1,1.2582286E-1,1.537482E-1,3.2178077E-1,-8.804919E-1,-1.6646194E0,1.5283261E-1,-1.0212266E0,1.5810083E-1,2.7345333E-1,-1.8894812E0,2.397926E-1,2.7094933E-1,2.3360528E-1,1.7579779E-1,3.0917436E-1,-7.6623714E-1,2.6413253E-1,2.9079574E-1,1.8705416E-1,1.3341048E-1,2.3011738E-1,1.4113507E-1,2.57201E-1,8.652049E-2,-1.9471712E0,2.2232877E-1,-9.557879E-1],"categories":[],"categories_nodes":[],"categories_segments":[],"categories_sizes":[],"default_left":[0,0,0,0,0,0,0,0,0,0,0,0,0,0,0,0,0,0,0,0,0,0,0,0,0,0,0,0,0,0,0,0,0,0,0,0,0,0,0,0,0,0,0,0,0,0,0,0,0,0,0,0,0,0,0,0,0,0,0,0,0,0,0,0,0,0,0,0,0,0,0,0,0,0,0,0,0,0,0],"id":1,"left_children":[1,3,5,7,9,11,13,15,17,19,-1,21,23,25,27,29,31,33,-1,35,-1,37,-1,39,41,43,45,47,-1,49,51,53,-1,55,-1,-1,57,59,61,63,65,67,69,71,73,-1,75,-1,77,-1,-1,-1,-1,-1,-1,-1,-1,-1,-1,-1,-1,-1,-1,-1,-1,-1,-1,-1,-1,-1,-1,-1,-1,-1,-1,-1,-1,-1,-1],"loss_changes":[3.89875E2,1.0276493E2,1.5828516E2,2.0012833E2,5.4360374E1,7.1342773E0,6.3776855E1,8.65235E1,1.1376617E1,3.7581177E1,0E0,6.1715744E1,4.3166504E0,7.8388794E1,5.9289795E1,9.7779495E1,2.4319542E1,6.503113E0,0E0,3.414615E1,0E0,2.0024994E1,0E0,5.8651123E0,6.821411E0,3.70094E1,2.720219E2,5.2138428E1,0E0,2.3425069E2,8.279174E1,2.2414246E0,0E0,4.581543E0,0E0,0E0,3.28901E1,8.392914E0,1.4271841E2,7.277466E0,1.1514893E0,3.8015057E1,1.8725586E0,1.1550598E1,4.136267E1,0E0,1.7965652E2,0E0,4.4138184E1,0E0,0E0,0E0,0E0,0E0,0E0,0E0,0E0,0E0,0E0,0E0,0E0,0E0,0E0,0E0,0E0,0E0,0E0,0E0,0E0,0E0,0E0,0E0,0E0,0E0,0E0,0E0,0E0,0E0,0E0],"parents":[2147483647,0,0,1,1,2,2,3,3,4,4,5,5,6,6,7,7,8,8,9,9,11,11,12,12,13,13,14,14,15,15,16,16,17,17,19,19,21,21,23,23,24,24,25,25,26,26,27,27,29,29,30,30,31,31,33,33,36,36,37,37,38,38,39,39,40,40,41,41,42,42,43,43,44,44,46,46,48,48],"right_children":[2,4,6,8,10,12,14,16,18,20,-1,22,24,26,28,30,32,34,-1,36,-1,38,-1,40,42,44,46,48,-1,50,52,54,-1,56,-1,-1,58,60,62,64,66,68,70,72,74,-1,76,-1,78,-1,-1,-1,-1,-1,-1,-1,-1,-1,-1,-1,-1,-1,-1,-1,-1,-1,-1,-1,-1,-1,-1,-1,-1,-1,-1,-1,-1,-1,-1],"split_conditions":[-1.0949149E0,-6.5138614E-1,4.9355263E-1,-8.715021E-1,1.5750822E0,-2.5663334E-1,2.4263038E-1,1.1024702E0,3.0065465E-1,1.3940799E0,-6.089483E-1,2.0858438E0,2.0085392E0,9.389537E-1,1.7756168E0,6.817916E-1,2.3513794E-1,7.202652E-1,-5.244698E-1,2.9942125E-2,-7.8709793E-1,9.594412E-1,-1.4131899E0,3.8453627E0,-1.5991887E0,-6.324926E-1,-4.9784756E-1,-1.348104E0,-1.3699012E0,-2.7187434E-1,-1.7096641E0,-4.8956773E-1,-6.095901E-1,-1.5614298E-1,-4.3077E-1,-1.0667429E0,1.6016577E0,-7.4760383E-1,1.6188954E-1,-7.6174235E-1,-1.539405E0,8.760084E-1,2.8133998E0,-1.0947075E0,5.950806E-1,-2.099478E0,1.4948656E-1,-1.3084476E0,2.439327E0,-3.924983E-2,-7.5627613E-1,-7.50328E-1,1.2582286E-1,1.537482E-1,3.2178077E-1,-8.804919E-1,-1.6646194E0,1.5283261E-1,-1.0212266E0,1.5810083E-1,2.7345333E-1,-1.8894812E0,2.397926E-1,2.7094933E-1,2.3360528E-1,1.7579779E-1,3.0917436E-1,-7.6623714E-1,2.6413253E-1,2.9079574E-1,1.8705416E-1,1.3341048E-1,2.3011738E-1,1.4113507E-1,2.57201E-1,8.652049E-2,-1.9471712E0,2.2232877E-1,-9.557879E-1],"split_indices":[1,8,0,8,6,9,1,9,3,7,0,4,9,3,4,6,6,4,0,5,0,6,0,18,4,3,5,2,0,6,1,6,0,2,0,0,4,3,5,5,6,1,1,4,7,0,1,0,7,0,0,0,0,0,0,0,0,0,0,0,0,0,0,0,0,0,0,0,0,0,0,0,0,0,0,0,0,0,0],"split_type":[0,0,0,0,0,0,0,0,0,0,0,0,0,0,0,0,0,0,0,0,0,0,0,0,0,0,0,0,0,0,0,0,0,0,0,0,0,0,0,0,0,0,0,0,0,0,0,0,0,0,0,0,0,0,0,0,0,0,0,0,0,0,0,0,0,0,0,0,0,0,0,0,0,0,0,0,0,0,0],"sum_hessian":[1.2982812E4,9.725584E2,1.2010253E4,5.0271005E2,4.698484E2,4.060426E3,7.949827E3,4.7553394E2,2.7176098E1,4.618016E2,8.046781E0,3.974874E2,3.6629387E3,4.0142954E3,3.9355315E3,4.0144345E2,7.409049E1,1.6496853E1,1.0679246E1,4.5883145E2,2.9701462E0,3.9640942E2,1.0779778E0,2.4367952E3,1.2261434E3,3.6506743E3,3.636212E2,3.9344023E3,1.129161E0,2.1774245E2,1.83701E2,7.224089E1,1.8495989E0,1.3260202E1,3.2366502E0,1.1073587E0,4.577241E2,3.7307523E2,2.333422E1,2.1530688E3,2.837262E2,2.4519337E1,1.2016241E3,1.2802965E3,2.3703777E3,4.30555E0,3.5931564E2,1.02651E0,3.933376E3,1.640113E2,5.373113E1,9.284059E0,1.7441695E2,1.1278155E1,6.0962738E1,1.0951484E1,2.308719E0,4.5655057E2,1.1735207E0,7.646026E1,2.9661496E2,2.250359E0,2.1083862E1,1.2946251E3,8.5844385E2,1.0494879E1,2.7323132E2,2.7729487E0,2.1746387E1,1.1787368E3,2.2887348E1,1.2841391E2,1.1518827E3,2.049554E3,3.2082394E2,3.5636194E2,2.9537117E0,3.9314763E3,1.8995438E0],"tree_param":{"num_deleted":"0","num_feature":"19","num_nodes":"79","size_leaf_vector":"1"}},{"base_weights":[5.794638E-1,1.4828514E-1,6.382368E-1,1.7701483E-1,-2.2756948E0,8.0441236E-1,5.563937E-1,5.7614155E-2,6.1516255E-1,7.701848E-1,8.839519E-1,5.229295E-1,8.102604E-1,-3.911891E0,8.872577E-2,6.6449744E-1,-9.020521E-1,7.357527E-1,8.874372E-1,4.0596756E-1,8.939464E-1,4.8676264E-1,7.197471E-1,8.2171214E-1,-6.584024E-1,-1.4748414E0,-4.8785174E-1,3.8053828E-1,-1.6191182E-1,7.138952E-1,-7.033421E-1,7.4106324E-1,-1.1857133E0,8.3790356E-1,1.0384562E0,2.6167032E-1,-4.9574924E-1,9.221866E-1,7.66656E-1,4.944225E-1,-1.6226231E0,7.9275775E-1,5.495849E-1,-2.1924154E-1,8.4021837E-1,1.23207636E-1,-1.2371017E0,-3.9897677E-1,-6.417166E-3,2.6017427E-1,1.5541263E-1,2.2397189E-1,-6.546705E-2,2.5672865E-1,2.3511E-2,1.9001245E-1,3.1850675E-1,2.490205E-1,2.8684995E-1,-7.059465E-2,2.4642043E-1,-1.5437499E0,1.4902844E-1,1.3039063E-1,-1.5826546E0,1.02698095E-1,2.4687675E-1,1.8041438E-1,-1.5123934E0,-1.4539064E0,3.103215E-1,1.7756292E-1,2.6603922E-1],"categories":[],"categories_nodes":[],"categories_segments":[],"categories_sizes":[],"default_left":[0,0,0,0,0,0,0,0,0,0,0,0,0,0,0,0,0,0,0,0,0,0,0,0,0,0,0,0,0,0,0,0,0,0,0,0,0,0,0,0,0,0,0,0,0,0,0,0,0,0,0,0,0,0,0,0,0,0,0,0,0,0,0,0,0,0,0,0,0,0,0,0,0],"id":2,"left_children":[1,3,5,7,-1,9,11,13,15,17,19,21,23,25,27,29,-1,31,33,35,37,39,41,43,-1,-1,-1,45,47,49,-1,51,-1,53,55,-1,-1,57,59,61,63,65,67,69,71,-1,-1,-1,-1,-1,-1,-1,-1,-1,-1,-1,-1,-1,-1,-1,-1,-1,-1,-1,-1,-1,-1,-1,-1,-1,-1,-1,-1],"loss_changes":[2.7924048E2,2.9542865E2,1.3147876E2,6.9001495E1,0E0,8.027588E0,5.4817993E1,1.2855444E2,5.247843E1,8.406982E0,4.2020874E0,4.056555E1,2.7801392E1,1.058802E1,7.547104E1,4.3221107E1,0E0,4.626294E1,2.9042969E0,2.1984352E1,2.654663E0,7.930896E1,1.0623718E1,1.4697052E1,0E0,0E0,0E0,6.6436874E1,9.112172E1,7.8335114E0,0E0,9.356445E0,0E0,5.1567383E0,4.6105957E-1,0E0,0E0,1.5866699E0,9.832817E0,6.643176E1,1.3616144E2,8.151245E0,8.137453E1,8.594807E1,8.039795E0,0E0,0E0,0E0,0E0,0E0,0E0,0E0,0E0,0E0,0E0,0E0,0E0,0E0,0E0,0E0,0E0,0E0,0E0,0E0,0E0,0E0,0E0,0E0,0E0,0E0,0E0,0E0,0E0],"parents":[2147483647,0,0,1,1,2,2,3,3,5,5,6,6,7,7,8,8,9,9,10,10,11,11,12,12,13,13,14,14,15,15,17,17,18,18,19,19,20,20,21,21,22,22,23,23,27,27,28,28,29,29,31,31,33,33,34,34,37,37,38,38,39,39,40,40,41,41,42,42,43,43,44,44],"right_children":[2,4,6,8,-1,10,12,14,16,18,20,22,24,26,28,30,-1,32,34,36,38,40,42,44,-1,-1,-1,46,48,50,-1,52,-1,54,56,-1,-1,58,60,62,64,66,68,70,72,-1,-1,-1,-1,-1,-1,-1,-1,-1,-1,-1,-1,-1,-1,-1,-1,-1,-1,-1,-1,-1,-1,-1,-1,-1,-1,-1,-1],"split_conditions":[-8.601925E-1,-9.086273E-1,4.9355263E-1,6.4943564E-1,-2.2756948E0,2.0085392E0,3.8453627E0,-1.326156E0,2.0091534E0,1.4162425E0,-1.5991887E0,6.4943564E-1,1.5132285E0,2.8857905E-1,-4.7983208E-1,2.5614552E0,-9.020521E-1,2.9150767E0,3.8453627E0,-1.5628039E0,1.6323361E0,2.7581108E0,2.9942125E-2,-1.712262E0,-6.584024E-1,-1.4748414E0,-4.8785174E-1,6.589917E-1,-4.7948694E-1,8.216266E-1,-7.033421E-1,2.5137749E0,-1.1857133E0,3.335289E0,-3.190957E-1,2.6167032E-1,-4.9574924E-1,-4.0412757E-1,1.8335268E0,-8.1548345E-1,-1.2889618E0,-1.0323927E0,1.3014395E0,1.9154934E0,-9.9187803E-1,1.23207636E-1,-1.2371017E0,-3.9897677E-1,-6.417166E-3,2.6017427E-1,1.5541263E-1,2.2397189E-1,-6.546705E-2,2.5672865E-1,2.3511E-2,1.9001245E-1,3.1850675E-1,2.490205E-1,2.8684995E-1,-7.059465E-2,2.4642043E-1,-1.5437499E0,1.4902844E-1,1.3039063E-1,-1.5826546E0,1.02698095E-1,2.4687675E-1,1.8041438E-1,-1.5123934E0,-1.4539064E0,3.103215E-1,1.7756292E-1,2.6603922E-1],"split_indices":[1,1,0,9,0,9,18,2,5,1,4,9,4,3,3,13,0,6,18,8,1,6,5,4,0,0,0,8,7,5,0,2,0,10,2,0,0,7,1,1,4,6,3,1,8,0,0,0,0,0,0,0,0,0,0,0,0,0,0,0,0,0,0,0,0,0,0,0,0,0,0,0,0],"split_type":[0,0,0,0,0,0,0,0,0,0,0,0,0,0,0,0,0,0,0,0,0,0,0,0,0,0,0,0,0,0,0,0,0,0,0,0,0,0,0,0,0,0,0,0,0,0,0,0,0,0,0,0,0,0,0,0,0,0,0,0,0,0,0,0,0,0,0,0,0,0,0,0,0],"sum_hessian":[1.1021767E4,1.3225575E3,9.699209E3,1.3186362E3,3.921301E0,3.1977058E3,6.501503E3,1.0371355E3,2.8150076E2,2.2431257E3,9.5458E2,5.7470034E3,7.544994E2,7.0954514E0,1.03004E3,2.7852356E2,2.9772015E0,1.7395636E3,5.0356213E2,2.0403542E1,9.341765E2,4.857814E3,8.891895E2,7.523587E2,2.14067E0,4.13007E0,2.9653814E0,4.756877E2,5.543523E2,2.7477536E2,3.7481966E0,1.7384363E3,1.1273104E0,3.841203E2,1.1944181E2,1.7105265E1,3.2982767E0,7.59444E2,1.7473251E2,4.8410005E3,1.6813646E1,6.196572E2,2.6953226E2,1.2952469E1,7.3940625E2,4.7342712E2,2.2605777E0,5.8622093E1,4.9573022E2,1.5218613E2,1.22589226E2,1.7287291E3,9.707186E0,3.7517236E2,8.947956E0,8.011842E0,1.1142997E2,2.1150026E2,5.479437E2,8.881505E0,1.6585101E2,1.0950803E0,4.8399053E3,1.1319612E1,5.494034E0,3.9667976E1,5.7998926E2,2.6794235E2,1.5898888E0,2.1502512E0,1.08022175E1,1.1894453E2,6.2046173E2],"tree_param":{"num_deleted":"0","num_feature":"19","num_nodes":"73","size_leaf_vector":"1"}},{"base_weights":[4.865798E-1,1.6755376E-2,5.3385323E-1,5.439472E-1,-1.2732457E-1,7.1875083E-1,4.5118555E-1,6.948693E-1,-4.47378E-1,-2.1864717E-1,9.243893E-1,6.8128306E-1,8.0979943E-1,4.196111E-1,7.5254196E-1,7.3318744E-1,-8.0519813E-1,-3.8746872E0,6.777994E-1,1.444396E-1,-5.8157235E-1,1.0007001E0,4.5453313E-1,6.575272E-1,8.903584E-1,6.6921073E-1,8.603941E-1,4.2537367E-1,-1.8286704E0,7.663671E-1,-9.1702384E-1,7.596865E-1,-4.9642757E-1,-1.2988671E0,-3.207134E-1,-5.4785E-1,2.95965E-1,6.982883E-1,-1.6776879E-1,-3.885147E-1,-2.6189375E0,3.206829E-1,2.165036E-1,-3.9517263E-1,2.829811E-1,7.303992E-1,5.8701456E-1,9.432108E-2,9.105542E-1,7.178915E-1,-1.733226E-1,9.124574E-1,7.3979235E-1,3.873682E-1,6.330204E-1,2.0718874E-1,-5.558063E0,8.12208E-1,3.5396525E-1,1.3630418E-1,2.730428E-1,2.8207746E-1,5.038546E-2,-1.1908721E0,2.0495875E-2,-7.0774084E-1,-4.7881257E-2,-1.0589752E0,-6.0468805E-1,-1.01177156E-1,2.2215508E-1,1.8768752E-1,-6.0539324E-2,2.4274595E-1,3.0523777E-1,-7.1542986E-2,2.2721107E-1,1.5690203E-1,2.7938947E-1,2.4464405E-1,5.8768917E-2,1.2725271E-1,1.610498E-2,2.1289767E-1,1.3124329E-1,-1.8904934E0,-5.02717E-1,-5.0351463E-2,2.4877168E-1,-1.7420822E0,1.783268E-1],"categories":[],"categories_nodes":[],"categories_segments":[],"categories_sizes":[],"default_left":[0,0,0,0,0,0,0,0,0,0,0,0,0,0,0,0,0,0,0,0,0,0,0,0,0,0,0,0,0,0,0,0,0,0,0,0,0,0,0,0,0,0,0,0,0,0,0,0,0,0,0,0,0,0,0,0,0,0,0,0,0,0,0,0,0,0,0,0,0,0,0,0,0,0,0,0,0,0,0,0,0,0,0,0,0,0,0,0,0,0,0],"id":3,"left_children":[1,3,5,7,9,11,13,15,17,19,21,23,25,27,29,31,-1,33,35,37,39,41,43,45,47,49,51,53,55,57,-1,59,-1,-1,-1,-1,-1,61,63,65,67,-1,-1,-1,-1,69,71,-1,73,75,-1,77,79,81,83,-1,85,87,89,-1,-1,-1,-1,-1,-1,-1,-1,-1,-1,-1,-1,-1,-1,-1,-1,-1,-1,-1,-1,-1,-1,-1,-1,-1,-1,-1,-1,-1,-1,-1,-1],"loss_changes":[2.1187012E2,6.639254E1,1.3215991E2,2.8378613E1,6.6142715E1,8.578003E0,5.6701904E1,2.3098503E1,1.0056062E2,8.343248E1,1.5187454E0,8.862976E0,4.936371E0,7.107977E1,3.2204865E1,1.151844E1,0E0,3.5718918E0,1.7240526E1,5.4929462E1,1.2348147E2,1.1437988E-1,9.488749E0,8.368408E0,1.9385681E0,1.313681E1,2.8811035E0,4.2474182E1,1.3594995E2,1.040863E1,0E0,6.9859467E0,0E0,0E0,0E0,0E0,0E0,1.4530979E1,1.829446E2,1.3057803E2,7.847E0,0E0,0E0,0E0,0E0,9.3003845E0,2.6781952E1,0E0,1.1741791E0,7.8130875E0,0E0,2.3841248E0,7.087883E0,5.6208252E1,1.2216583E1,0E0,6.1249847E0,8.625092E0,8.99254E1,0E0,0E0,0E0,0E0,0E0,0E0,0E0,0E0,0E0,0E0,0E0,0E0,0E0,0E0,0E0,0E0,0E0,0E0,0E0,0E0,0E0,0E0,0E0,0E0,0E0,0E0,0E0,0E0,0E0,0E0,0E0,0E0],"parents":[2147483647,0,0,1,1,2,2,3,3,4,4,5,5,6,6,7,7,8,8,9,9,10,10,11,11,12,12,13,13,14,14,15,15,17,17,18,18,19,19,20,20,21,21,22,22,23,23,24,24,25,25,26,26,27,27,28,28,29,29,31,31,37,37,38,38,39,39,40,40,45,45,46,46,48,48,49,49,51,51,52,52,53,53,54,54,56,56,57,57,58,58],"right_children":[2,4,6,8,10,12,14,16,18,20,22,24,26,28,30,32,-1,34,36,38,40,42,44,46,48,50,52,54,56,58,-1,60,-1,-1,-1,-1,-1,62,64,66,68,-1,-1,-1,-1,70,72,-1,74,76,-1,78,80,82,84,-1,86,88,90,-1,-1,-1,-1,-1,-1,-1,-1,-1,-1,-1,-1,-1,-1,-1,-1,-1,-1,-1,-1,-1,-1,-1,-1,-1,-1,-1,-1,-1,-1,-1,-1],"split_conditions":[-1.0949149E0,5.577318E-1,4.9355263E-1,4.5932668E-1,9.798676E-1,2.0085392E0,1.4162425E0,2.73547E-1,1.3407191E0,-3.943851E-1,5.8469844E-1,3.8453627E0,-4.0916207E-1,2.394409E0,2.094183E0,9.956564E-1,-8.0519813E-1,2.5614552E0,-1.0104802E0,-1.4121827E0,-1.2160579E-2,-6.2066907E-1,1.7003078E0,-1.0256373E0,-1.539405E0,6.4523447E-1,5.459385E-1,6.4943564E-1,-8.633719E-1,1.6701494E0,-9.1702384E-1,-1.3296373E0,-4.9642757E-1,-1.2988671E0,-3.207134E-1,-5.4785E-1,2.95965E-1,-1.635149E0,-7.8882945E-1,-1.6873096E0,2.3945826E-1,3.206829E-1,2.165036E-1,-3.9517263E-1,2.829811E-1,-2.5046287E0,1.5225332E0,9.432108E-2,1.393888E0,-5.36052E-1,-1.733226E-1,-7.098544E-1,2.0309918E0,2.5614552E0,1.1865827E0,2.0718874E-1,2.439327E0,-9.499672E-1,1.7389357E0,1.3630418E-1,2.730428E-1,2.8207746E-1,5.038546E-2,-1.1908721E0,2.0495875E-2,-7.0774084E-1,-4.7881257E-2,-1.0589752E0,-6.0468805E-1,-1.01177156E-1,2.2215508E-1,1.8768752E-1,-6.0539324E-2,2.4274595E-1,3.0523777E-1,-7.1542986E-2,2.2721107E-1,1.5690203E-1,2.7938947E-1,2.4464405E-1,5.8768917E-2,1.2725271E-1,1.610498E-2,2.1289767E-1,1.3124329E-1,-1.8904934E0,-5.02717E-1,-5.0351463E-2,2.4877168E-1,-1.7420822E0,1.783268E-1],"split_indices":[1,5,0,4,2,9,1,2,4,3,3,18,7,3,6,6,0,13,2,4,2,4,2,5,6,8,3,9,6,8,0,1,0,0,0,0,0,1,4,1,3,0,0,0,0,3,10,0,1,1,0,8,1,13,14,0,7,2,8,0,0,0,0,0,0,0,0,0,0,0,0,0,0,0,0,0,0,0,0,0,0,0,0,0,0,0,0,0,0,0,0],"split_type":[0,0,0,0,0,0,0,0,0,0,0,0,0,0,0,0,0,0,0,0,0,0,0,0,0,0,0,0,0,0,0,0,0,0,0,0,0,0,0,0,0,0,0,0,0,0,0,0,0,0,0,0,0,0,0,0,0,0,0,0,0,0,0,0,0,0,0,0,0,0,0,0,0,0,0,0,0,0,0,0,0,0,0,0,0,0,0,0,0,0,0],"sum_hessian":[9.538723E3,8.7216003E2,8.6665625E3,1.8660237E2,6.855577E2,2.6752668E3,5.991296E3,1.6220662E2,2.4395737E1,6.3151404E2,5.4043633E1,1.9013271E3,7.7393976E2,5.42526E3,5.6603595E2,1.6116197E2,1.0446564E0,5.4256115E0,1.8970125E1,3.1598767E2,3.1552634E2,4.552068E1,8.522954E0,1.7110559E3,1.9027126E2,2.0858008E2,5.653597E2,5.4121987E3,1.3061199E1,5.6478503E2,1.2509657E0,1.6006757E2,1.094407E0,4.2013063E0,1.2243049E0,1.5428573E0,1.7427269E1,1.13465866E2,2.025218E2,2.893031E2,2.6223234E1,3.4300446E1,1.1220231E1,1.4762048E0,7.046749E0,8.3684845E2,8.7420746E2,7.0070796E0,1.8326418E2,2.0115146E2,7.4286237E0,3.9030203E2,1.7505762E2,4.577286E3,8.349124E2,8.2815895E0,4.7796097E0,5.0741348E2,5.7371513E1,5.4164555E1,1.0590301E2,7.738532E1,3.6080544E1,1.0916476E1,1.9160533E2,2.9139973E1,2.6016315E2,8.514979E0,1.7708254E1,7.5525064E0,8.2929596E2,8.336111E2,4.0596363E1,9.8450905E1,8.481328E1,7.774495E0,1.9337695E2,1.9337769E1,3.7096426E2,1.532344E2,2.1823221E1,4.1223E3,4.5498627E2,5.9793604E2,2.3697643E2,3.4883354E0,1.2912743E0,8.515773E0,4.9889774E2,1.2854952E0,5.6086018E1],"tree_param":{"num_deleted":"0","num_feature":"19","num_nodes":"91","size_leaf_vector":"1"}},{"base_weights":[4.0095234E-1,6.267797E-1,3.1625983E-1,6.311851E-1,-7.1325403E-1,6.0467876E-2,3.959492E-1,4.1428497E-1,6.5664864E-1,-8.971521E-1,2.5678286E-1,8.015042E-2,-2.290598E0,3.6096516E-1,6.7733705E-1,4.516525E-1,-1.2215955E0,6.9774467E-1,5.814879E-1,-4.7288555E-1,1.4676E-1,2.8919798E-1,-2.547539E0,5.2453315E-1,2.9624018E-1,6.9045043E-1,-4.9165452E-1,4.865008E-1,-7.824288E-1,7.33536E-1,4.8693597E-1,7.5669265E-1,4.7101596E-1,-1.2275552E0,5.443075E-1,1.6119419E-1,-2.4282184E0,2.780144E-1,6.405995E-1,-1.1485559E0,2.9947916E-1,3.7576437E-1,7.626768E-1,1.687194E-1,-1.4379784E-1,1.9540863E-1,2.437718E-1,-4.0138945E-1,1.6983613E-1,2.4779682E-1,1.5742965E-1,-2.8058377E-1,1.7283824E-1,1.2140073E-1,-6.112259E-1,-7.206378E-1,2.2433153E-1,5.189146E-2,-8.859209E-1,-8.7448245E-1,-3.9264584E-1,-2.6892653E-1,1.2011595E-1,8.5698515E-2,2.0705354E-1,8.05312E-2,2.0587113E-1,1.4876164E-1,-1.3200928E0,-8.5810654E-2,2.3453681E-1],"categories":[],"categories_nodes":[],"categories_segments":[],"categories_sizes":[],"default_left":[0,0,0,0,0,0,0,0,0,0,0,0,0,0,0,0,0,0,0,0,0,0,0,0,0,0,0,0,0,0,0,0,0,0,0,0,0,0,0,0,0,0,0,0,0,0,0,0,0,0,0,0,0,0,0,0,0,0,0,0,0,0,0,0,0,0,0,0,0,0,0],"id":4,"left_children":[1,3,5,7,9,11,13,15,17,-1,-1,19,21,23,25,27,-1,29,31,33,35,-1,-1,37,39,41,-1,43,-1,45,47,49,51,53,55,57,59,61,63,-1,65,67,69,-1,-1,-1,-1,-1,-1,-1,-1,-1,-1,-1,-1,-1,-1,-1,-1,-1,-1,-1,-1,-1,-1,-1,-1,-1,-1,-1,-1],"loss_changes":[1.602998E2,1.3955872E1,1.2441797E2,1.232489E1,3.1025892E1,6.7343605E1,4.5575623E1,4.2464703E1,5.89386E0,0E0,0E0,5.3124306E1,2.5205101E2,4.3695984E1,1.6729843E1,2.699107E1,0E0,9.553528E0,1.3713623E1,1.19697205E2,4.8196E1,0E0,0E0,3.338556E1,4.0825745E1,1.1336151E1,0E0,1.781562E1,0E0,6.7506714E0,2.8736E1,4.057953E0,6.683188E1,1.188985E2,4.1803284E1,4.745655E1,1.2504578E-1,5.457888E1,1.3824005E1,0E0,3.545569E1,5.8072372E1,8.540497E0,0E0,0E0,0E0,0E0,0E0,0E0,0E0,0E0,0E0,0E0,0E0,0E0,0E0,0E0,0E0,0E0,0E0,0E0,0E0,0E0,0E0,0E0,0E0,0E0,0E0,0E0,0E0,0E0],"parents":[2147483647,0,0,1,1,2,2,3,3,4,4,5,5,6,6,7,7,8,8,11,11,12,12,13,13,14,14,15,15,17,17,18,18,19,19,20,20,23,23,24,24,25,25,27,27,29,29,30,30,31,31,32,32,33,33,34,34,35,35,36,36,37,37,38,38,40,40,41,41,42,42],"right_children":[2,4,6,8,10,12,14,16,18,-1,-1,20,22,24,26,28,-1,30,32,34,36,-1,-1,38,40,42,-1,44,-1,46,48,50,52,54,56,58,60,62,64,-1,66,68,70,-1,-1,-1,-1,-1,-1,-1,-1,-1,-1,-1,-1,-1,-1,-1,-1,-1,-1,-1,-1,-1,-1,-1,-1,-1,-1,-1,-1],"split_conditions":[4.9355263E-1,1.4813638E0,-4.615369E-1,-2.5663334E-1,1.9154934E0,-4.7643992E-1,3.8453627E0,5.212353E0,1.1865827E0,-8.971521E-1,2.5678286E-1,-1.6835839E0,-2.037387E0,-6.324926E-1,1.5132285E0,2.0858438E0,-1.2215955E0,2.5614552E0,-6.4571047E-1,-3.516094E-1,2.536943E0,2.8919798E-1,-2.547539E0,-8.030301E-1,-1.348104E0,-9.9187803E-1,-4.9165452E-1,9.594412E-1,-7.824288E-1,1.6029148E-1,-4.4703174E-1,-7.6174235E-1,-7.0643955E-1,-5.217895E-1,-1.2618892E-1,1.6610937E0,2.1417703E-1,-9.236477E-1,-6.204323E-1,-1.1485559E0,2.4492278E0,8.870276E-1,-4.8727617E-1,1.687194E-1,-1.4379784E-1,1.9540863E-1,2.437718E-1,-4.0138945E-1,1.6983613E-1,2.4779682E-1,1.5742965E-1,-2.8058377E-1,1.7283824E-1,1.2140073E-1,-6.112259E-1,-7.206378E-1,2.2433153E-1,5.189146E-2,-8.859209E-1,-8.7448245E-1,-3.9264584E-1,-2.6892653E-1,1.2011595E-1,8.5698515E-2,2.0705354E-1,8.05312E-2,2.0587113E-1,1.4876164E-1,-1.3200928E0,-8.5810654E-2,2.3453681E-1],"split_indices":[0,5,1,9,1,1,18,15,14,0,0,1,3,3,4,4,0,13,3,2,5,0,0,6,2,8,0,6,0,8,7,5,6,7,3,4,3,4,8,0,2,6,7,0,0,0,0,0,0,0,0,0,0,0,0,0,0,0,0,0,0,0,0,0,0,0,0,0,0,0,0],"split_type":[0,0,0,0,0,0,0,0,0,0,0,0,0,0,0,0,0,0,0,0,0,0,0,0,0,0,0,0,0,0,0,0,0,0,0,0,0,0,0,0,0,0,0,0,0,0,0,0,0,0,0,0,0,0,0,0,0,0,0,0,0,0,0,0,0,0,0,0,0,0,0],"sum_hessian":[8.390673E3,2.2867625E3,6.1039106E3,2.2797964E3,6.9660068E0,1.4503252E3,4.6535854E3,2.4133716E2,2.0384592E3,2.4723387E0,4.493668E0,1.4392422E3,1.1083072E1,4.141028E3,5.1255774E2,2.4023549E2,1.1016694E0,1.3125211E3,7.25938E2,1.5405748E2,1.2851847E3,7.8222485E0,3.2608235E0,1.1720388E3,2.968989E3,5.1037015E2,2.1876266E0,2.3836172E2,1.873767E0,1.1199031E3,1.9261806E2,2.7846E2,4.47478E2,8.8322784E1,6.57347E1,1.2789528E3,6.2318473E0,3.7626578E2,7.95773E2,1.402916E0,2.967586E3,9.6430534E1,4.139396E2,2.2138261E2,1.6979107E1,5.5358514E2,5.6631793E2,7.349242E0,1.8526881E2,2.1242796E2,6.603204E1,3.0570814E1,4.169072E2,2.9456207E1,5.8866573E1,3.5480516E0,6.218665E1,1.2750753E3,3.877545E0,3.225397E0,3.0064502E0,3.4909084E1,3.413567E2,9.8361336E1,6.974117E2,2.7486675E3,2.189185E2,9.49392E1,1.491336E0,7.1589694E0,4.0678064E2],"tree_param":{"num_deleted":"0","num_feature":"19","num_nodes":"71","size_leaf_vector":"1"}},{"base_weights":[3.2346603E-1,2.4306504E-1,5.2886254E-1,2.4563916E-1,-1.9958078E0,6.3442767E-1,4.5732203E-1,3.365578E-1,4.938621E-2,5.468654E-1,8.0089724E-1,7.811829E-1,4.080468E-1,3.419689E-1,-1.219298E0,-4.5855187E-2,4.9127814E-1,-1.1081983E-1,5.917371E-1,9.2379045E-1,6.0901797E-1,8.159771E-1,-8.082984E-2,-1.1340859E0,4.2061344E-1,2.9322803E-1,4.757064E-1,-8.047653E-1,2.643529E-1,-1.4456492E-2,-2.6966767E0,7.073105E-1,1.2687115E-1,6.5233564E-1,-2.4843512E0,7.391613E-1,4.224285E-1,9.9903846E-1,7.566352E-1,-2.5023127E-1,6.79176E-1,8.4333074E-1,5.5322845E-2,-7.593968E-1,4.375949E-1,1.11241706E-1,7.1203923E-3,1.4653374E-1,-4.251828E-1,-7.2886E-1,9.815645E-4,2.3323679E-1,1.0706548E-1,6.3064836E-2,-1.3389679E0,-1.8599312E-1,2.7304092E-1,2.3611587E-1,-3.8664278E-1,-2.947731E-1,1.4427549E-1,1.6042924E-1,3.0420977E-1,2.538005E-1,-1.20951205E-1,2.2355321E-1,-1.8624236E-1,2.638334E-1,3.7051138E-2,-1.3048868E0,1.3167423E-1,1.4098321E-1,5.220411E-3],"categories":[],"categories_nodes":[],"categories_segments":[],"categories_sizes":[],"default_left":[0,0,0,0,0,0,0,0,0,0,0,0,0,0,0,0,0,0,0,0,0,0,0,0,0,0,0,0,0,0,0,0,0,0,0,0,0,0,0,0,0,0,0,0,0,0,0,0,0,0,0,0,0,0,0,0,0,0,0,0,0,0,0,0,0,0,0,0,0,0,0,0,0],"id":5,"left_children":[1,3,5,7,-1,9,11,13,15,17,19,21,23,25,27,29,31,33,35,37,39,41,-1,-1,43,45,47,-1,-1,49,-1,51,53,55,-1,57,59,61,63,-1,65,67,-1,69,71,-1,-1,-1,-1,-1,-1,-1,-1,-1,-1,-1,-1,-1,-1,-1,-1,-1,-1,-1,-1,-1,-1,-1,-1,-1,-1,-1,-1],"loss_changes":[1.24373474E2,9.784305E1,1.5721008E1,9.667505E1,0E0,1.2007477E1,1.9904694E1,3.1593536E1,7.227785E1,1.6670456E1,6.3263702E0,6.2974625E0,5.959236E1,2.3921051E1,4.248442E1,3.9673367E2,2.3881966E1,2.3472733E2,1.2838821E1,1.4597473E0,1.2411743E1,2.6289139E0,0E0,0E0,2.2366669E1,5.6602524E1,2.4429306E1,0E0,0E0,6.035132E1,0E0,4.416313E0,4.476118E1,1.1901347E1,0E0,2.8238693E1,2.0817627E1,2.8159332E-1,6.4359055E0,0E0,1.008268E1,3.9000778E0,0E0,7.05961E1,1.4735291E1,0E0,0E0,0E0,0E0,0E0,0E0,0E0,0E0,0E0,0E0,0E0,0E0,0E0,0E0,0E0,0E0,0E0,0E0,0E0,0E0,0E0,0E0,0E0,0E0,0E0,0E0,0E0,0E0],"parents":[2147483647,0,0,1,1,2,2,3,3,5,5,6,6,7,7,8,8,9,9,10,10,11,11,12,12,13,13,14,14,15,15,16,16,17,17,18,18,19,19,20,20,21,21,24,24,25,25,26,26,29,29,31,31,32,32,33,33,35,35,36,36,37,37,38,38,40,40,41,41,43,43,44,44],"right_children":[2,4,6,8,-1,10,12,14,16,18,20,22,24,26,28,30,32,34,36,38,40,42,-1,-1,44,46,48,-1,-1,50,-1,52,54,56,-1,58,60,62,64,-1,66,68,-1,70,72,-1,-1,-1,-1,-1,-1,-1,-1,-1,-1,-1,-1,-1,-1,-1,-1,-1,-1,-1,-1,-1,-1,-1,-1,-1,-1,-1,-1],"split_conditions":[6.4943564E-1,7.131218E0,-7.6174235E-1,2.9383695E-1,-1.9958078E0,1.279317E-1,-1.5628039E0,2.7581108E0,8.242301E-2,-7.545655E-1,1.1865827E0,2.9146082E0,-1.487139E0,6.8887717E-1,1.8046099E0,-2.189807E-2,-3.0521047E-1,-9.668625E-1,4.52633E-1,5.1978517E-1,-1.3205004E-1,1.1865827E0,-8.082984E-2,-1.1340859E0,-1.6542757E0,1.6271685E-1,1.7526929E0,-8.047653E-1,2.643529E-1,-1.3071858E0,-2.6966767E0,6.8972075E-1,1.4813638E0,-1.2979707E0,-2.4843512E0,7.092278E-1,6.1428064E-1,-1.712262E0,1.4603513E0,-2.5023127E-1,-8.936898E-1,7.180068E-1,5.5322845E-2,9.5357406E-1,2.5614552E0,1.11241706E-1,7.1203923E-3,1.4653374E-1,-4.251828E-1,-7.2886E-1,9.815645E-4,2.3323679E-1,1.0706548E-1,6.3064836E-2,-1.3389679E0,-1.8599312E-1,2.7304092E-1,2.3611587E-1,-3.8664278E-1,-2.947731E-1,1.4427549E-1,1.6042924E-1,3.0420977E-1,2.538005E-1,-1.20951205E-1,2.2355321E-1,-1.8624236E-1,2.638334E-1,3.7051138E-2,-1.3048868E0,1.3167423E-1,1.4098321E-1,5.220411E-3],"split_indices":[9,11,5,5,0,2,8,6,1,8,14,9,8,2,4,1,7,3,8,3,8,14,0,0,4,3,8,0,0,2,0,1,5,6,0,3,8,4,8,0,5,6,0,5,13,0,0,0,0,0,0,0,0,0,0,0,0,0,0,0,0,0,0,0,0,0,0,0,0,0,0,0,0],"split_type":[0,0,0,0,0,0,0,0,0,0,0,0,0,0,0,0,0,0,0,0,0,0,0,0,0,0,0,0,0,0,0,0,0,0,0,0,0,0,0,0,0,0,0,0,0,0,0,0,0,0,0,0,0,0,0,0,0,0,0,0,0,0,0,0,0,0,0,0,0,0,0,0,0],"sum_hessian":[7.538141E3,5.419069E3,2.119072E3,5.4180107E3,1.0581115E0,8.5280536E2,1.2662666E3,3.702178E3,1.7158329E3,5.616598E2,2.911455E2,1.6525783E2,1.1010088E3,3.6901243E3,1.20536175E1,1.4123286E3,3.0350433E2,3.577885E1,5.25881E2,1.7515154E2,1.1599399E2,1.6017645E2,5.0813723E0,2.3966923E0,1.098612E3,2.7068142E3,9.8331E2,6.941114E0,5.112503E0,1.4083854E3,3.9431598E0,1.8995299E2,1.13551346E2,3.3563953E1,2.214899E0,2.79309E2,2.4657196E2,1.173483E2,5.780323E1,4.872833E0,1.11121155E2,1.532057E2,6.970745E0,1.4965526E1,1.0836465E3,2.101493E3,6.053215E2,9.774738E2,5.8362274E0,9.271839E0,1.3991135E3,1.5725612E2,3.2696877E1,1.12463486E2,1.0878599E0,5.418314E0,2.8145638E1,2.7346295E2,5.846062E0,9.223027E0,2.3734894E2,4.818332E0,1.1252997E2,5.3919167E1,3.8840644E0,1.06158195E2,4.962965E0,1.4567538E2,7.5303183E0,3.0869641E0,1.1878561E1,1.0060743E3,7.7572235E1],"tree_param":{"num_deleted":"0","num_feature":"19","num_nodes":"73","size_leaf_vector":"1"}},{"base_weights":[2.5634176E-1,4.734032E-1,1.847882E-1,4.2539072E-1,6.0407984E-1,-1.848004E-2,2.4048926E-1,3.7349522E-1,6.328718E-1,6.170565E-1,-1.7982033E-1,-8.039871E-2,8.2880133E-1,2.0887037E-1,5.348856E-1,3.8122436E-1,-5.633994E-1,5.522265E-1,9.223472E-1,6.487304E-1,1.6929395E-1,-3.716027E-2,-4.007289E0,3.9996102E-1,1.0010575E0,3.9258474E-1,1.6103521E-1,-1.5425104E-1,5.8629125E-1,7.8730416E-1,3.414827E-1,7.796633E-1,3.1737146E-1,5.2098095E-2,2.9240116E-1,6.645407E-1,-3.919294E-2,-5.067293E-1,5.138551E-1,-2.6341185E-2,-1.429648E0,-2.7339928E0,-5.5046396E0,-3.757468E-1,2.6116383E-1,1.8878801E-1,3.1353465E-1,2.2018025E-2,4.5074144E-1,-2.2362351E0,1.6746844E-1,-2.0080445E0,4.6606502E-1,5.9879714E-1,-3.7568873E-1,2.8562862E-1,8.1194974E-2,-1.2280897E0,1.0631641E-1,2.4851142E-1,-3.9350525E-2,-3.990032E-1,1.415647E-1,1.5396065E-1,2.1939203E-1,-2.7879018E-1,2.5949118E-1,2.3976679E-1,-1.3917863E-1,-2.429246E-3,-6.6221976E-1,-9.0585685E-1,-3.2794517E-1,-1.8897548E0,-5.3894E-1,2.8543466E-1,-1.5436646E0,7.28016E-2,-2.2837262E0,1.069182E-1,1.9735941E-1,9.180749E-2,-2.712203E0,4.2148296E-2,1.5486959E-1,2.2225665E-1,-9.378827E-2,1.8517478E-1,-1.8701531E-1],"categories":[],"categories_nodes":[],"categories_segments":[],"categories_sizes":[],"default_left":[0,0,0,0,0,0,0,0,0,0,0,0,0,0,0,0,0,0,0,0,0,0,0,0,0,0,0,0,0,0,0,0,0,0,0,0,0,0,0,0,0,0,0,0,0,0,0,0,0,0,0,0,0,0,0,0,0,0,0,0,0,0,0,0,0,0,0,0,0,0,0,0,0,0,0,0,0,0,0,0,0,0,0,0,0,0,0,0,0],"id":6,"left_children":[1,3,5,7,9,11,13,15,17,19,-1,21,23,25,27,29,-1,31,33,35,37,39,41,43,45,47,49,51,53,55,57,59,61,-1,-1,63,65,-1,67,69,-1,71,73,75,-1,-1,-1,77,79,81,83,-1,85,87,-1,-1,-1,-1,-1,-1,-1,-1,-1,-1,-1,-1,-1,-1,-1,-1,-1,-1,-1,-1,-1,-1,-1,-1,-1,-1,-1,-1,-1,-1,-1,-1,-1,-1,-1],"loss_changes":[1.073089E2,1.049472E1,5.890361E1,1.3293823E1,7.52359E0,5.8815723E1,3.789708E1,1.825064E1,5.326332E0,6.3243866E0,0E0,1.771957E2,5.239731E0,3.2354553E1,1.4096863E1,1.5950165E1,0E0,1.0328751E1,1.9059753E0,4.6305237E0,2.092634E1,5.277575E1,6.6204224E0,8.922039E0,2.2360992E-1,1.6398468E1,4.553827E1,1.1766091E2,9.214554E0,7.304676E0,5.3947014E1,4.5408363E0,2.5852041E1,0E0,0E0,3.8067627E0,9.218373E0,0E0,7.958192E0,4.1076103E1,0E0,5.0787354E-1,1.166214E0,6.559832E1,0E0,0E0,0E0,1.7760315E2,1.2624756E1,1.3955472E2,2.7412529E1,0E0,5.95029E0,8.646179E0,0E0,0E0,0E0,0E0,0E0,0E0,0E0,0E0,0E0,0E0,0E0,0E0,0E0,0E0,0E0,0E0,0E0,0E0,0E0,0E0,0E0,0E0,0E0,0E0,0E0,0E0,0E0,0E0,0E0,0E0,0E0,0E0,0E0,0E0,0E0],"parents":[2147483647,0,0,1,1,2,2,3,3,4,4,5,5,6,6,7,7,8,8,9,9,11,11,12,12,13,13,14,14,15,15,17,17,18,18,19,19,20,20,21,21,22,22,23,23,24,24,25,25,26,26,27,27,28,28,29,29,30,30,31,31,32,32,35,35,36,36,38,38,39,39,41,41,42,42,43,43,47,47,48,48,49,49,50,50,52,52,53,53],"right_children":[2,4,6,8,10,12,14,16,18,20,-1,22,24,26,28,30,-1,32,34,36,38,40,42,44,46,48,50,52,54,56,58,60,62,-1,-1,64,66,-1,68,70,-1,72,74,76,-1,-1,-1,78,80,82,84,-1,86,88,-1,-1,-1,-1,-1,-1,-1,-1,-1,-1,-1,-1,-1,-1,-1,-1,-1,-1,-1,-1,-1,-1,-1,-1,-1,-1,-1,-1,-1,-1,-1,-1,-1,-1,-1],"split_conditions":[4.9355263E-1,2.0085392E0,-6.7390484E-1,1.4162425E0,8.216266E-1,1.0029229E0,3.8453627E0,1.4813638E0,3.8453627E0,2.5614552E0,-1.7982033E-1,6.589917E-1,1.9640115E-1,-8.131408E-1,-7.3370546E-1,-1.5628039E0,-5.633994E-1,-8.513169E-1,-3.190957E-1,2.8133998E0,-5.4952395E-1,2.3056774E0,-1.0949149E0,4.5104292E-1,-1.8936399E-1,-9.381443E-1,-7.8943E-1,-5.467365E-1,1.4610409E0,-8.8015795E-1,-5.378113E-1,1.0482569E0,-2.5663334E-1,5.2098095E-2,2.9240116E-1,-4.0916207E-1,3.4468665E0,-5.067293E-1,5.8469844E-1,1.4610409E0,-1.429648E0,2.5614552E0,-6.811105E-2,1.0235587E0,2.6116383E-1,1.8878801E-1,3.1353465E-1,-3.9814314E-1,-1.247819E-1,-3.9155713E-1,1.4199682E0,-2.0080445E0,-1.0200529E-1,1.5841666E0,-3.7568873E-1,2.8562862E-1,8.1194974E-2,-1.2280897E0,1.0631641E-1,2.4851142E-1,-3.9350525E-2,-3.990032E-1,1.415647E-1,1.5396065E-1,2.1939203E-1,-2.7879018E-1,2.5949118E-1,2.3976679E-1,-1.3917863E-1,-2.429246E-3,-6.6221976E-1,-9.0585685E-1,-3.2794517E-1,-1.8897548E0,-5.3894E-1,2.8543466E-1,-1.5436646E0,7.28016E-2,-2.2837262E0,1.069182E-1,1.9735941E-1,9.180749E-2,-2.712203E0,4.2148296E-2,1.5486959E-1,2.2225665E-1,-9.378827E-2,1.8517478E-1,-1.8701531E-1],"split_indices":[0,9,1,1,5,8,18,5,18,13,0,8,9,3,2,8,0,6,2,1,6,2,1,7,3,4,3,4,4,4,7,2,9,0,0,7,11,0,3,4,0,13,2,8,0,0,0,7,2,7,1,0,5,8,0,0,0,0,0,0,0,0,0,0,0,0,0,0,0,0,0,0,0,0,0,0,0,0,0,0,0,0,0,0,0,0,0,0,0],"split_type":[0,0,0,0,0,0,0,0,0,0,0,0,0,0,0,0,0,0,0,0,0,0,0,0,0,0,0,0,0,0,0,0,0,0,0,0,0,0,0,0,0,0,0,0,0,0,0,0,0,0,0,0,0,0,0,0,0,0,0,0,0,0,0,0,0,0,0,0,0,0,0,0,0,0,0,0,0,0,0,0,0,0,0,0,0,0,0,0,0],"sum_hessian":[6.913737E3,1.7126642E3,5.2010723E3,1.2555957E3,4.5706854E2,1.1188295E3,4.0822432E3,1.00661865E3,2.4897699E2,4.526748E2,4.3937287E0,1.043478E3,7.535145E1,3.6878667E3,3.9437643E2,1.0040027E3,2.6159601E0,1.9700171E2,5.1975285E1,4.223497E2,3.03251E1,1.0331119E3,1.0365988E1,2.2545416E1,5.2806034E1,7.60377E2,2.9274897E3,2.7237255E1,3.6713916E2,8.782258E1,9.161801E2,9.890295E1,9.809876E1,3.6772354E0,4.829805E1,4.128943E2,9.455424E0,4.1327786E0,2.6192322E1,1.0317567E3,1.3552322E0,7.1293316E0,3.2366555E0,8.588971E0,1.3956445E1,7.2143207E0,4.5591713E1,1.0333281E2,6.570442E2,6.907437E0,2.9205823E3,1.511624E0,2.5725632E1,3.6532855E2,1.8106148E0,6.59458E1,2.1876778E1,1.7407472E0,9.144394E2,9.396838E1,4.934562E0,7.7595162E0,9.033924E1,1.2905394E2,2.8384036E2,4.7507386E0,4.704686E0,2.0416391E1,5.775931E0,1.0241935E3,7.5632663E0,5.356923E0,1.7724087E0,2.0900872E0,1.1465683E0,7.34559E0,1.2433814E0,1.0137115E2,1.9616607E0,4.5328662E2,2.0375755E2,5.7239084E0,1.1835283E0,2.7122163E3,2.0836589E2,1.9051275E1,6.6743555E0,3.6038257E2,4.9459853E0],"tree_param":{"num_deleted":"0","num_feature":"19","num_nodes":"89","size_leaf_vector":"1"}},{"base_weights":[1.9915582E-1,3.9060614E-1,1.4078967E-1,2.3534667E-1,4.3950385E-1,9.634693E-2,3.2182196E-1,2.9159832E-1,-1.5910823E0,5.247269E-1,3.0285218E-1,1.3900945E-1,-2.359813E-1,-9.7765374E-1,3.5248604E-1,2.4461287E-1,9.2797536E-1,-1.8706416E0,1.1278205E-1,5.4526865E-1,-4.7131144E-2,3.3937156E-1,-4.9080718E-1,1.4763469E-1,-1.364844E0,-3.3026628E0,-1.3388827E-1,4.318718E-2,-2.5289323E0,7.676633E-1,3.0096635E-1,3.081018E-1,-8.3847576E-1,1.6995396E-1,2.9852268E-1,-7.812914E-1,2.3458053E-1,5.695174E-1,3.049162E-2,-1.8149176E0,5.071403E-1,2.2551148E-1,6.437997E-1,-2.4307778E0,3.7461272E-1,8.779515E-2,3.5515815E-1,-2.5119789E0,-3.8264704E-1,-3.8325077E-1,-4.323923E0,-3.530196E-2,-1.8629819E0,6.026889E-1,-1.0103748E0,8.174469E-1,1.6290486E-2,-4.8103224E-2,3.8946488E-1,2.0822853E-1,7.363086E-2,1.1309046E-1,-9.947064E-1,1.7575598E-1,-8.003326E-2,1.0330123E-1,-1.3759599E0,-2.1902607E-1,2.3681913E-1,8.9079104E-2,-3.6483097E-1,-3.9827877E-1,2.1367136E-1,-3.742575E-1,2.5095874E-1,3.8779642E-2,-1.0550652E-1,1.6639528E-1,2.5411934E-2,-6.46566E-1,9.008082E-2,-4.946306E-1,-1.4406309E0,-1.4996718E-1,7.18241E-2,-1.523014E0,9.131719E-2,-6.019696E-2,2.8225642E-1,1.8943588E-1,2.7426934E-1,1.334068E-1,-2.2757128E-1,-4.9680665E-2,1.4019293E-1],"categories":[],"categories_nodes":[],"categories_segments":[],"categories_sizes":[],"default_left":[0,0,0,0,0,0,0,0,0,0,0,0,0,0,0,0,0,0,0,0,0,0,0,0,0,0,0,0,0,0,0,0,0,0,0,0,0,0,0,0,0,0,0,0,0,0,0,0,0,0,0,0,0,0,0,0,0,0,0,0,0,0,0,0,0,0,0,0,0,0,0,0,0,0,0,0,0,0,0,0,0,0,0,0,0,0,0,0,0,0,0,0,0,0,0],"id":7,"left_children":[1,3,5,7,9,11,13,15,17,19,21,23,25,27,29,31,33,-1,35,37,39,41,43,45,47,49,51,53,-1,55,57,59,61,-1,-1,-1,-1,63,65,-1,67,69,71,-1,73,75,77,-1,79,-1,81,83,85,87,-1,89,-1,91,93,-1,-1,-1,-1,-1,-1,-1,-1,-1,-1,-1,-1,-1,-1,-1,-1,-1,-1,-1,-1,-1,-1,-1,-1,-1,-1,-1,-1,-1,-1,-1,-1,-1,-1,-1,-1],"loss_changes":[7.197031E1,1.1325119E1,3.9724487E1,3.7728218E1,1.3160156E1,5.6301632E1,3.913732E1,1.0319317E1,8.7687355E1,8.283997E0,1.2967457E1,4.583197E1,1.4103981E2,1.7311502E2,2.012835E1,2.2938156E1,1.579094E-2,0E0,1.8443325E1,8.45488E0,8.723569E1,1.4510601E1,1.337099E2,4.341606E1,1.3556317E2,2.450061E1,7.4662125E1,4.2046005E1,0E0,3.6642914E0,2.6227592E1,7.383444E0,5.7047283E1,0E0,0E0,0E0,0E0,9.010773E0,4.7353676E1,0E0,8.986143E0,3.2202385E1,1.640099E1,0E0,1.5106123E1,4.9563694E1,4.2183716E1,0E0,2.3318882E1,0E0,3.8909454E0,5.3181713E1,1.661159E2,5.3126063E0,0E0,1.1786652E0,0E0,6.0724636E1,2.9326454E1,0E0,0E0,0E0,0E0,0E0,0E0,0E0,0E0,0E0,0E0,0E0,0E0,0E0,0E0,0E0,0E0,0E0,0E0,0E0,0E0,0E0,0E0,0E0,0E0,0E0,0E0,0E0,0E0,0E0,0E0,0E0,0E0,0E0,0E0,0E0,0E0],"parents":[2147483647,0,0,1,1,2,2,3,3,4,4,5,5,6,6,7,7,8,8,9,9,10,10,11,11,12,12,13,13,14,14,15,15,16,16,18,18,19,19,20,20,21,21,22,22,23,23,24,24,25,25,26,26,27,27,29,29,30,30,31,31,32,32,37,37,38,38,40,40,41,41,42,42,44,44,45,45,46,46,48,48,50,50,51,51,52,52,53,53,55,55,57,57,58,58],"right_children":[2,4,6,8,10,12,14,16,18,20,22,24,26,28,30,32,34,-1,36,38,40,42,44,46,48,50,52,54,-1,56,58,60,62,-1,-1,-1,-1,64,66,-1,68,70,72,-1,74,76,78,-1,80,-1,82,84,86,88,-1,90,-1,92,94,-1,-1,-1,-1,-1,-1,-1,-1,-1,-1,-1,-1,-1,-1,-1,-1,-1,-1,-1,-1,-1,-1,-1,-1,-1,-1,-1,-1,-1,-1,-1,-1,-1,-1,-1,-1],"split_conditions":[4.9355263E-1,-7.884553E-1,1.1336168E0,7.326145E-1,1.1865827E0,9.0620625E-1,-1.206523E0,1.0998617E0,8.447165E-1,4.4724627E0,2.1502159E0,1.0889057E0,-7.1531147E-1,-1.2932582E0,-4.5729074E-1,2.5614552E0,2.9442462E-1,-1.8706416E0,6.4943564E-1,1.5750822E0,-4.068875E-1,2.0085392E0,1.0338767E0,7.478533E-1,-2.1957566E-1,-1.471216E0,3.7537096E0,-4.8914856E-1,-2.5289323E0,4.5932668E-1,-1.9875745E-1,-1.6040756E0,-1.0417424E0,1.6995396E-1,2.9852268E-1,-7.812914E-1,2.3458053E-1,2.5137749E0,2.5614552E0,-1.8149176E0,3.6185446E-1,1.5841666E0,-9.961776E-1,-2.4307778E0,7.3009527E-1,2.5614552E0,1.1865827E0,-2.5119789E0,4.2598453E-1,-3.8325077E-1,-4.7356585E-1,-1.7676109E-1,2.1440437E0,-1.8663332E-1,-1.0103748E0,-5.54616E-1,1.6290486E-2,-5.836049E-1,-5.253805E-1,2.0822853E-1,7.363086E-2,1.1309046E-1,-9.947064E-1,1.7575598E-1,-8.003326E-2,1.0330123E-1,-1.3759599E0,-2.1902607E-1,2.3681913E-1,8.9079104E-2,-3.6483097E-1,-3.9827877E-1,2.1367136E-1,-3.742575E-1,2.5095874E-1,3.8779642E-2,-1.0550652E-1,1.6639528E-1,2.5411934E-2,-6.46566E-1,9.008082E-2,-4.946306E-1,-1.4406309E0,-1.4996718E-1,7.18241E-2,-1.523014E0,9.131719E-2,-6.019696E-2,2.8225642E-1,1.8943588E-1,2.7426934E-1,1.334068E-1,-2.2757128E-1,-4.9680665E-2,1.4019293E-1],"split_indices":[0,2,8,3,14,3,2,7,7,17,1,8,2,2,7,13,8,0,9,6,2,9,8,2,3,1,16,6,0,4,7,8,3,0,0,0,0,2,13,0,1,8,6,0,6,13,14,0,4,0,7,8,3,3,0,2,0,3,6,0,0,0,0,0,0,0,0,0,0,0,0,0,0,0,0,0,0,0,0,0,0,0,0,0,0,0,0,0,0,0,0,0,0,0,0],"split_type":[0,0,0,0,0,0,0,0,0,0,0,0,0,0,0,0,0,0,0,0,0,0,0,0,0,0,0,0,0,0,0,0,0,0,0,0,0,0,0,0,0,0,0,0,0,0,0,0,0,0,0,0,0,0,0,0,0,0,0,0,0,0,0,0,0,0,0,0,0,0,0,0,0,0,0,0,0,0,0,0,0,0,0,0,0,0,0,0,0,0,0,0,0,0,0],"sum_hessian":[6.444667E3,1.5043772E3,4.9402896E3,3.6170584E2,1.1426714E3,3.9677534E3,9.7253613E2,3.5171387E2,9.991987E0,7.020171E2,4.406543E2,3.5168596E3,4.5089386E2,2.1708189E1,9.5082794E2,3.2882053E2,2.2893335E1,1.9680032E0,8.023984E0,6.7771924E2,2.4297852E1,4.2181723E2,1.8837076E1,3.4977007E3,1.9158966E1,1.351707E1,4.373768E2,1.9967161E1,1.7410293E0,1.0342947E2,8.473985E2,3.1128882E2,1.7531715E1,5.0628824E0,1.7830454E1,1.0141402E0,7.009844E0,6.4712964E2,3.0589579E1,1.2158478E0,2.3082003E1,3.0826346E2,1.13553764E2,1.0693157E0,1.7767761E1,2.7159714E3,7.8172906E2,1.4300292E0,1.7728935E1,5.2859445E0,8.231126E0,4.1474976E2,2.262703E1,1.786087E1,2.1062906E0,9.6545876E1,6.8835907E0,1.7147942E2,6.7591907E2,4.2071323E1,2.692175E2,1.2329885E1,5.2018313E0,6.350248E2,1.2104863E1,2.9509096E1,1.0804834E0,3.9929488E0,1.9089054E1,2.9446924E2,1.3794233E1,3.1925375E0,1.1036123E2,3.5611415E0,1.420662E1,2.4824314E3,2.3354008E2,4.4927817E2,3.324509E2,4.3311443E0,1.3397792E1,1.9226962E0,6.3084292E0,1.5381093E2,2.6093884E2,8.572937E0,1.4054092E1,5.411637E0,1.2449233E1,3.561925E1,6.092662E1,1.0147129E2,7.000813E1,8.2995865E1,5.929232E2],"tree_param":{"num_deleted":"0","num_feature":"19","num_nodes":"95","size_leaf_vector":"1"}},{"base_weights":[1.5449077E-1,1.3475643E-2,2.2763734E-1,-3.2752064E-1,1.0446326E-1,2.016257E-1,4.8943043E-1,1.03935204E-1,-1.0020779E0,1.659654E-1,-3.4612322E-1,3.467555E-1,1.4729118E-1,5.128653E-1,-1.1043423E0,1.4091572E-1,-1.3664415E0,-1.6445578E0,1.5943602E-1,1.82891E-1,-1.5402901E0,-4.598042E0,-2.3144846E-1,3.819001E-1,-7.0665884E-1,2.4080122E-1,-1.2135059E-2,5.3510034E-1,-1.0625479E0,2.8893235E-1,-4.2212585E-1,-4.5958924E0,-1.13658E0,-3.6320887E0,3.6143982E-1,1.4400317E-1,6.0202616E-1,-3.9960482E0,2.899667E-1,-4.681444E-1,-1.9472164E0,-1.0127438E0,9.667383E-2,-5.849885E-1,4.0944695E-1,-3.4588192E0,2.3093581E-1,-3.6010358E-1,2.8010246E-1,-2.5541046E0,7.996876E-3,-9.036306E-1,5.554551E-1,-4.8582386E-2,2.1171197E-1,-7.498061E-1,1.2554382E-1,-1.8257334E0,2.3833334E-1,-9.985525E-2,-7.4896234E-1,-1.3208008E0,-3.6362287E-1,1.5315448E-1,-1.1211547E0,-6.67905E-3,6.662469E-2,-2.1131253E-1,1.9237472E-1,-2.6950693E-1,-1.3449752E0,2.7510118E-1,-3.9287147E-1,5.294766E-2,-7.793082E-1,-4.325383E-1,9.0407416E-2,1.7805263E-1,-9.932089E-1,1.034052E-1,1.9657987E-1,2.4066123E-1,-1.9945086E0,2.2218718E-1,-1.4742606E0,-3.213076E-1,8.516089E-2,6.720046E-2,1.8088484E-1,-2.7968874E-2,-2.1035154E0,5.8917115E-3,-1.0845938E0,1.7885844E-1,-2.0905955E-1],"categories":[],"categories_nodes":[],"categories_segments":[],"categories_sizes":[],"default_left":[0,0,0,0,0,0,0,0,0,0,0,0,0,0,0,0,0,0,0,0,0,0,0,0,0,0,0,0,0,0,0,0,0,0,0,0,0,0,0,0,0,0,0,0,0,0,0,0,0,0,0,0,0,0,0,0,0,0,0,0,0,0,0,0,0,0,0,0,0,0,0,0,0,0,0,0,0,0,0,0,0,0,0,0,0,0,0,0,0,0,0,0,0,0,0],"id":8,"left_children":[1,3,5,7,9,11,13,15,17,19,21,23,25,27,-1,29,-1,31,33,35,37,39,41,43,45,47,49,51,-1,53,55,57,59,61,63,65,67,69,71,-1,-1,73,75,77,79,81,83,85,87,89,91,-1,93,-1,-1,-1,-1,-1,-1,-1,-1,-1,-1,-1,-1,-1,-1,-1,-1,-1,-1,-1,-1,-1,-1,-1,-1,-1,-1,-1,-1,-1,-1,-1,-1,-1,-1,-1,-1,-1,-1,-1,-1,-1,-1],"loss_changes":[6.285878E1,6.464921E1,2.7226974E1,1.2783937E2,4.56351E1,2.8745407E1,3.7265915E1,4.6914337E1,1.2809839E2,4.2094387E1,9.540607E1,3.7070297E1,3.9639896E1,3.4425957E1,0E0,2.2410257E1,0E0,1.6026584E2,4.8737972E1,2.3294743E1,6.5554855E1,1.9438843E1,4.975727E1,2.5877518E1,8.451553E1,3.9679016E1,5.037116E1,2.764627E1,0E0,4.001976E1,9.896466E1,1.3237213E2,1.0355829E2,6.7323685E-1,3.8383545E1,1.7063612E1,6.6764526E0,5.30809E0,1.0369451E1,0E0,0E0,1.0861047E2,4.367987E1,8.893979E1,1.4683212E1,1.18226654E2,6.955803E1,4.7604202E1,2.8365387E1,8.418743E1,4.1290844E1,0E0,1.870684E1,0E0,0E0,0E0,0E0,0E0,0E0,0E0,0E0,0E0,0E0,0E0,0E0,0E0,0E0,0E0,0E0,0E0,0E0,0E0,0E0,0E0,0E0,0E0,0E0,0E0,0E0,0E0,0E0,0E0,0E0,0E0,0E0,0E0,0E0,0E0,0E0,0E0,0E0,0E0,0E0,0E0,0E0],"parents":[2147483647,0,0,1,1,2,2,3,3,4,4,5,5,6,6,7,7,8,8,9,9,10,10,11,11,12,12,13,13,15,15,17,17,18,18,19,19,20,20,21,21,22,22,23,23,24,24,25,25,26,26,27,27,29,29,30,30,31,31,32,32,33,33,34,34,35,35,36,36,37,37,38,38,41,41,42,42,43,43,44,44,45,45,46,46,47,47,48,48,49,49,50,50,52,52],"right_children":[2,4,6,8,10,12,14,16,18,20,22,24,26,28,-1,30,-1,32,34,36,38,40,42,44,46,48,50,52,-1,54,56,58,60,62,64,66,68,70,72,-1,-1,74,76,78,80,82,84,86,88,90,92,-1,94,-1,-1,-1,-1,-1,-1,-1,-1,-1,-1,-1,-1,-1,-1,-1,-1,-1,-1,-1,-1,-1,-1,-1,-1,-1,-1,-1,-1,-1,-1,-1,-1,-1,-1,-1,-1,-1,-1,-1,-1,-1,-1],"split_conditions":[-2.5663334E-1,-6.960972E-1,3.4468665E0,-1.3151734E0,2.5614552E0,-6.670505E-1,5.577318E-1,2.3760839E0,8.0462015E-1,2.094183E0,-9.5119125E-1,4.4724627E0,1.1865827E0,4.4724627E0,-1.1043423E0,2.3945826E-1,-1.3664415E0,-4.775238E-1,-5.062459E-1,3.8453627E0,3.470359E0,-8.601925E-1,5.145406E-1,-1.4488614E0,-6.4221567E-1,-1.2402192E0,-6.154855E-1,-1.6542757E0,-1.0625479E0,4.29107E-1,-1.6347668E-1,1.5131121E0,-4.4690293E-1,4.045612E-1,1.0974164E0,-1.1131614E-1,4.9355263E-1,-1.0949149E0,-1.2889618E0,-4.681444E-1,-1.9472164E0,-3.9259157E-1,-7.6174235E-1,-1.1565278E0,9.556208E-2,-1.4214795E0,-2.742873E-1,-3.516094E-1,1.8495731E0,6.3569844E-2,2.3849382E0,-9.036306E-1,1.5268121E0,-4.8582386E-2,2.1171197E-1,-7.498061E-1,1.2554382E-1,-1.8257334E0,2.3833334E-1,-9.985525E-2,-7.4896234E-1,-1.3208008E0,-3.6362287E-1,1.5315448E-1,-1.1211547E0,-6.67905E-3,6.662469E-2,-2.1131253E-1,1.9237472E-1,-2.6950693E-1,-1.3449752E0,2.7510118E-1,-3.9287147E-1,5.294766E-2,-7.793082E-1,-4.325383E-1,9.0407416E-2,1.7805263E-1,-9.932089E-1,1.034052E-1,1.9657987E-1,2.4066123E-1,-1.9945086E0,2.2218718E-1,-1.4742606E0,-3.213076E-1,8.516089E-2,6.720046E-2,1.8088484E-1,-2.7968874E-2,-2.1035154E0,5.8917115E-3,-1.0845938E0,1.7885844E-1,-2.0905955E-1],"split_indices":[9,8,11,8,13,3,5,2,2,6,4,17,14,17,0,3,0,7,1,18,6,1,8,1,2,1,3,4,0,6,1,1,3,6,3,1,0,1,4,0,0,6,5,2,2,5,2,2,2,4,1,0,6,0,0,0,0,0,0,0,0,0,0,0,0,0,0,0,0,0,0,0,0,0,0,0,0,0,0,0,0,0,0,0,0,0,0,0,0,0,0,0,0,0,0],"split_type":[0,0,0,0,0,0,0,0,0,0,0,0,0,0,0,0,0,0,0,0,0,0,0,0,0,0,0,0,0,0,0,0,0,0,0,0,0,0,0,0,0,0,0,0,0,0,0,0,0,0,0,0,0,0,0,0,0,0,0,0,0,0,0,0,0,0,0,0,0,0,0,0,0,0,0,0,0,0,0,0,0,0,0,0,0,0,0,0,0,0,0,0,0,0,0],"sum_hessian":[6.0933506E3,2.0815784E3,4.0117722E3,4.3788977E2,1.6436887E3,3.6508005E3,3.609716E2,2.6758487E2,1.7030492E2,1.4468365E3,1.9685213E2,9.930201E2,2.6577805E3,3.5982672E2,1.1448787E0,2.6643964E2,1.1452128E0,1.0938424E2,6.0920677E1,1.4335093E3,1.33272295E1,4.1429553E0,1.9270917E2,9.615769E2,3.1443195E1,1.6748827E3,9.8289777E2,3.5872757E2,1.0991507E0,2.1136203E2,5.507762E1,1.4880662E1,9.450358E1,2.2226267E0,5.8698048E1,1.3130286E3,1.2048071E2,5.185811E0,8.141419E0,2.2908514E0,1.8521042E0,5.6378727E1,1.3633044E2,2.6076082E1,9.355008E2,7.30665E0,2.4136545E1,1.0231732E2,1.5725654E3,6.7341833E0,9.761636E2,1.2081258E0,3.5751944E2,1.0182134E2,1.0954068E2,1.5298951E1,3.977867E1,1.1557235E1,3.323428E0,6.018144E1,3.4322136E1,1.0644192E0,1.1582075E0,5.7482727E1,1.21532E0,4.197983E2,8.932303E2,3.0175211E0,1.17463196E2,1.0912733E0,4.0945377E0,6.1552124E0,1.9862065E0,3.271804E1,2.3660688E1,1.529848E1,1.2103197E2,1.8751059E1,7.325023E0,7.423303E2,1.9317049E2,3.4483569E0,3.8582933E0,2.2739935E1,1.3966118E0,4.83156E1,5.4001724E1,1.3411997E3,2.3136568E2,4.9966445E0,1.7375386E0,9.7402844E2,2.1350994E0,3.467627E2,1.0756743E1],"tree_param":{"num_deleted":"0","num_feature":"19","num_nodes":"95","size_leaf_vector":"1"}},{"base_weights":[1.1926669E-1,8.617106E-2,3.5050732E-1,1.6817436E-1,-3.5041936E-2,2.9618818E-1,6.2693524E-1,3.3064705E-1,1.15310095E-1,-1.4662255E0,-1.1487085E-2,-1.9876373E-1,3.7024638E-1,6.6007304E-1,-1.4739613E-1,-1.227277E0,3.4769067E-1,4.642517E-1,7.76233E-2,-3.5856702E0,8.9940375E-1,3.0495492E-3,-1.378057E0,4.2165422E-1,-1.6601034E0,-6.09355E-1,4.0593386E-1,-9.339397E-2,6.9177043E-1,-2.9893652E-2,-1.4769802E0,3.568309E-1,-7.275568E-1,5.029567E-1,-1.0521426E0,-4.2764574E-2,1.959812E-1,1.288489E-1,-8.7446785E0,1.3797887E-1,2.957266E-1,-8.607351E-1,9.37322E-3,-2.3300602E0,2.229942E-1,-1.302045E-1,9.551329E-1,-5.97052E0,-8.0906406E-2,-2.3233223E0,6.4899796E-1,4.7237018E-1,-8.9574315E-2,8.932356E-1,5.126278E-1,2.3426473E-1,-2.5173655E-1,9.037337E-2,2.1605144E-1,1.6356137E-1,-3.4546125E-1,1.0388027E-2,-2.1271926E-1,6.1953608E-2,-1.5774491E0,2.699082E-1,-3.6547628E-1,-7.4080634E-1,-3.3260043E0,1.6848747E-2,-1.1303256E-1,-4.4994313E-1,-1.0256094E0,2.1974905E-1,-5.064397E-1,3.0219784E-1,9.7161E-2,-4.3126857E-1,-2.6962252E0,-1.044657E0,1.7792943E-1,-1.2617223E-1,2.9582527E-1,1.5185332E-1,-1.4990133E-1,1.343321E-1,-4.48706E-1,2.8490865E-1,-1.3806723E-1,1.8126628E-1,-2.5068527E-2],"categories":[],"categories_nodes":[],"categories_segments":[],"categories_sizes":[],"default_left":[0,0,0,0,0,0,0,0,0,0,0,0,0,0,0,0,0,0,0,0,0,0,0,0,0,0,0,0,0,0,0,0,0,0,0,0,0,0,0,0,0,0,0,0,0,0,0,0,0,0,0,0,0,0,0,0,0,0,0,0,0,0,0,0,0,0,0,0,0,0,0,0,0,0,0,0,0,0,0,0,0,0,0,0,0,0,0,0,0,0,0],"id":9,"left_children":[1,3,5,7,9,11,13,15,17,19,21,23,25,27,-1,29,31,33,35,37,39,41,43,45,47,49,51,-1,53,55,-1,57,-1,59,-1,61,63,65,67,-1,-1,-1,69,71,-1,73,75,77,79,-1,81,83,85,87,89,-1,-1,-1,-1,-1,-1,-1,-1,-1,-1,-1,-1,-1,-1,-1,-1,-1,-1,-1,-1,-1,-1,-1,-1,-1,-1,-1,-1,-1,-1,-1,-1,-1,-1,-1,-1],"loss_changes":[4.4099754E1,5.015932E1,1.0649864E1,2.5812943E1,6.864971E1,2.22505E1,4.6828804E0,2.0031967E1,2.984758E1,1.6854663E2,3.983271E1,7.2682625E1,1.86577E1,3.7458153E0,0E0,3.619033E1,1.9395988E1,3.578146E1,2.9248852E1,3.382478E2,1.6827297E-1,3.607647E1,4.4354137E1,1.6767235E1,1.6196097E2,1.7481256E2,1.6788857E1,0E0,3.5607681E0,5.384344E0,0E0,1.4518875E1,0E0,1.600869E1,0E0,5.2526825E1,6.0530884E1,1.2740128E1,8.106616E1,0E0,0E0,0E0,3.5821342E1,8.257797E0,0E0,3.9765266E1,6.2475395E-1,7.439856E1,4.442853E1,0E0,6.5431824E0,1.4999069E1,4.6746765E1,4.339031E0,3.3971386E0,0E0,0E0,0E0,0E0,0E0,0E0,0E0,0E0,0E0,0E0,0E0,0E0,0E0,0E0,0E0,0E0,0E0,0E0,0E0,0E0,0E0,0E0,0E0,0E0,0E0,0E0,0E0,0E0,0E0,0E0,0E0,0E0,0E0,0E0,0E0,0E0],"parents":[2147483647,0,0,1,1,2,2,3,3,4,4,5,5,6,6,7,7,8,8,9,9,10,10,11,11,12,12,13,13,15,15,16,16,17,17,18,18,19,19,20,20,21,21,22,22,23,23,24,24,25,25,26,26,28,28,29,29,31,31,33,33,35,35,36,36,37,37,38,38,42,42,43,43,45,45,46,46,47,47,48,48,50,50,51,51,52,52,53,53,54,54],"right_children":[2,4,6,8,10,12,14,16,18,20,22,24,26,28,-1,30,32,34,36,38,40,42,44,46,48,50,52,-1,54,56,-1,58,-1,60,-1,62,64,66,68,-1,-1,-1,70,72,-1,74,76,78,80,-1,82,84,86,88,90,-1,-1,-1,-1,-1,-1,-1,-1,-1,-1,-1,-1,-1,-1,-1,-1,-1,-1,-1,-1,-1,-1,-1,-1,-1,-1,-1,-1,-1,-1,-1,-1,-1,-1,-1,-1],"split_conditions":[5.950806E-1,-3.1846136E-2,3.8453627E0,-8.936898E-1,2.6047632E-2,-1.6644317E-1,6.449395E0,-1.8210544E-1,-1.801588E0,9.594412E-1,2.2730482E0,4.76236E-2,-5.3746897E-1,-7.3370546E-1,-1.4739613E-1,-1.674966E0,2.3114908E0,1.3102763E0,-3.3552065E-1,4.9355263E-1,-6.8644774E-1,-1.539405E0,2.1440437E0,-1.7852315E-1,1.0304922E0,1.1591656E0,1.6612597E0,-9.339397E-2,-1.9051835E-1,-1.6368798E0,-1.4769802E0,3.4468665E0,-7.275568E-1,1.0213127E0,-1.0521426E0,1.0855215E0,1.7526929E0,2.1282436E-1,-1.0949149E0,1.3797887E-1,2.957266E-1,-8.607351E-1,2.5614552E0,-1.0949149E0,2.229942E-1,4.9355263E-1,5.8469844E-1,-1.0949149E0,-1.5229942E-1,-2.3233223E0,9.5517963E-1,1.5225332E0,4.9355263E-1,7.202652E-1,1.3268244E0,2.3426473E-1,-2.5173655E-1,9.037337E-2,2.1605144E-1,1.6356137E-1,-3.4546125E-1,1.0388027E-2,-2.1271926E-1,6.1953608E-2,-1.5774491E0,2.699082E-1,-3.6547628E-1,-7.4080634E-1,-3.3260043E0,1.6848747E-2,-1.1303256E-1,-4.4994313E-1,-1.0256094E0,2.1974905E-1,-5.064397E-1,3.0219784E-1,9.7161E-2,-4.3126857E-1,-2.6962252E0,-1.044657E0,1.7792943E-1,-1.2617223E-1,2.9582527E-1,1.5185332E-1,-1.4990133E-1,1.343321E-1,-4.48706E-1,2.8490865E-1,-1.3806723E-1,1.8126628E-1,-2.5068527E-2],"split_indices":[7,3,18,5,3,8,7,1,3,6,5,4,6,2,0,3,6,4,2,0,2,6,3,4,4,1,3,0,8,4,0,11,0,1,0,5,8,1,1,0,0,0,13,1,0,0,3,1,1,0,3,10,0,4,1,0,0,0,0,0,0,0,0,0,0,0,0,0,0,0,0,0,0,0,0,0,0,0,0,0,0,0,0,0,0,0,0,0,0,0,0],"split_type":[0,0,0,0,0,0,0,0,0,0,0,0,0,0,0,0,0,0,0,0,0,0,0,0,0,0,0,0,0,0,0,0,0,0,0,0,0,0,0,0,0,0,0,0,0,0,0,0,0,0,0,0,0,0,0,0,0,0,0,0,0,0,0,0,0,0,0,0,0,0,0,0,0,0,0,0,0,0,0,0,0,0,0,0,0,0,0,0,0,0,0],"sum_hessian":[5.7653193E3,5.044686E3,7.20633E2,3.0087874E3,2.035899E3,6.040134E2,1.1661953E2,7.3735376E2,2.2714333E3,3.197319E1,2.0039258E3,7.839482E1,5.2561865E2,1.1366109E2,2.9584408E0,7.2109046E0,7.301429E2,2.2030583E2,2.0511277E3,1.6592072E1,1.5381119E1,1.983821E3,2.0104761E1,5.5530552E1,2.2864271E1,1.7910517E1,5.077081E2,3.3129275E0,1.1034816E2,6.2078476E0,1.003057E0,7.286125E2,1.5304024E0,2.190444E2,1.2614396E0,1.01716046E3,1.0339672E3,1.021339E1,6.378682E0,3.564801E0,1.1816318E1,3.3636508E0,1.9804574E3,1.3809241E1,6.29552E0,2.766664E1,2.7863913E1,5.3850503E0,1.7479221E1,1.9124175E0,1.5998099E1,4.477251E2,5.998301E1,5.0061947E1,6.0286213E1,3.118455E0,3.0893924E0,6.335211E2,9.509134E1,2.142441E2,4.8003063E0,9.121602E2,1.0500024E2,1.0329349E3,1.0322461E0,6.707388E0,3.5060027E0,2.2919223E0,4.08676E0,1.7671838E3,2.1327357E2,9.183291E0,4.625949E0,1.8147371E1,9.519267E0,2.5185802E1,2.6781096E0,2.7418542E0,2.6431963E0,2.20178E0,1.5277441E1,3.7743719E0,1.2223728E1,4.331398E2,1.458531E1,4.3891396E1,1.6091612E1,4.83436E1,1.7183428E0,5.2246124E1,8.04009E0],"tree_param":{"num_deleted":"0","num_feature":"19","num_nodes":"91","size_leaf_vector":"1"}},{"base_weights":[9.450442E-2,4.4703946E-2,2.4773493E-1,8.4443635E-4,2.107267E-1,3.2851842E-1,9.163645E-2,8.2922485E-3,-1.1791823E0,-9.090292E-1,2.1896487E-1,6.571871E-1,2.82466E-1,-3.1068122E-1,2.9690054E-1,1.1035129E-1,-7.878327E-2,-1.3906995E0,-1.4880579E-2,6.3334286E-1,1.5931742E-1,6.9934374E-1,-2.3690873E-1,-9.7714907E-1,3.125597E-1,-7.482682E-2,-1.9441785E0,-5.6378E-1,3.8092628E-1,-8.079452E-2,1.9162758E-1,-2.3419371E-1,1.2623473E-1,-8.107106E-1,5.6216776E-1,-2.6491308E-1,7.807211E-1,-1.9195329E-1,2.5608498E-1,7.265375E-1,-7.139065E-2,-6.952168E-2,-1.3963808E0,4.0738875E-1,1.6064842E-1,-1.0421977E0,-1.4549443E-2,-2.9297059E0,-8.795164E-1,-1.7775601E0,9.6350856E-2,4.7333822E-1,-6.012303E-2,-7.009241E-2,1.3214211E-1,6.2538646E-2,-6.40944E-1,-5.1564053E-2,-8.257025E-1,1.0815068E-1,-2.1896306E-2,2.8031778E-1,-2.483974E-2,-1.3417394E0,1.3488337E-1,2.501245E-1,-1.1526667E-1,1.04457274E-1,-2.3711927E-1,1.0087382E-1,-2.897456E-2,1.602515E-1,2.7022073E-1,-7.2265166E-1,1.12295024E-1,-3.089937E-1,1.2804347E-1,-8.553948E-2,1.2469081E-1,2.4224946E-2,-4.6602443E-1,-1.0086287E0,1.7202887E-1,1.8164253E-1,-6.2398326E-1,1.7193744E-1,3.965956E-2,-1.3025248E0,5.8385696E-2],"categories":[],"categories_nodes":[],"categories_segments":[],"categories_sizes":[],"default_left":[0,0,0,0,0,0,0,0,0,0,0,0,0,0,0,0,0,0,0,0,0,0,0,0,0,0,0,0,0,0,0,0,0,0,0,0,0,0,0,0,0,0,0,0,0,0,0,0,0,0,0,0,0,0,0,0,0,0,0,0,0,0,0,0,0,0,0,0,0,0,0,0,0,0,0,0,0,0,0,0,0,0,0,0,0,0,0,0,0],"id":10,"left_children":[1,3,5,7,9,11,13,15,17,-1,19,21,23,25,27,29,31,-1,33,35,37,39,-1,41,43,45,47,49,51,53,55,57,59,-1,61,63,65,67,69,71,-1,73,-1,75,77,-1,79,-1,81,-1,83,85,87,-1,-1,-1,-1,-1,-1,-1,-1,-1,-1,-1,-1,-1,-1,-1,-1,-1,-1,-1,-1,-1,-1,-1,-1,-1,-1,-1,-1,-1,-1,-1,-1,-1,-1,-1,-1],"loss_changes":[4.2386326E1,3.0542074E1,1.7152252E1,2.9178242E1,2.406491E1,1.33991165E1,3.8580513E1,2.9326998E1,8.373082E1,0E0,2.1531498E1,7.234276E0,3.0212303E1,6.0704826E1,2.2570236E1,2.3618317E1,5.6769165E1,0E0,2.7230734E1,1.4741745E1,2.6101131E1,2.8996544E0,0E0,6.193169E1,1.1045784E1,2.8440918E1,1.5701929E2,9.930744E1,1.153141E1,3.6272892E1,4.2236492E1,1.5852827E2,3.589314E1,0E0,3.5528026E0,5.0779808E1,6.162422E0,5.3967762E1,1.7031872E1,3.0108414E0,0E0,1.7487984E1,0E0,1.3678879E1,3.4001656E1,0E0,2.0310246E1,0E0,6.903256E1,0E0,2.9871696E1,7.8710403E0,5.5137493E1,0E0,0E0,0E0,0E0,0E0,0E0,0E0,0E0,0E0,0E0,0E0,0E0,0E0,0E0,0E0,0E0,0E0,0E0,0E0,0E0,0E0,0E0,0E0,0E0,0E0,0E0,0E0,0E0,0E0,0E0,0E0,0E0,0E0,0E0,0E0,0E0],"parents":[2147483647,0,0,1,1,2,2,3,3,4,4,5,5,6,6,7,7,8,8,10,10,11,11,12,12,13,13,14,14,15,15,16,16,18,18,19,19,20,20,21,21,23,23,24,24,25,25,26,26,27,27,28,28,29,29,30,30,31,31,32,32,34,34,35,35,36,36,37,37,38,38,39,39,41,41,43,43,44,44,46,46,48,48,50,50,51,51,52,52],"right_children":[2,4,6,8,10,12,14,16,18,-1,20,22,24,26,28,30,32,-1,34,36,38,40,-1,42,44,46,48,50,52,54,56,58,60,-1,62,64,66,68,70,72,-1,74,-1,76,78,-1,80,-1,82,-1,84,86,88,-1,-1,-1,-1,-1,-1,-1,-1,-1,-1,-1,-1,-1,-1,-1,-1,-1,-1,-1,-1,-1,-1,-1,-1,-1,-1,-1,-1,-1,-1,-1,-1,-1,-1,-1,-1],"split_conditions":[6.4943564E-1,1.1336168E0,1.1865827E0,1.0889057E0,-2.5046287E0,-1.5628039E0,-2.8034133E-1,-2.3623386E-1,4.2598453E-1,-9.090292E-1,-4.4703174E-1,3.3676426E0,-1.3908383E0,-1.00441985E-1,-5.8297795E-1,-8.151018E-1,5.952742E-1,-1.3906995E0,1.3620237E-1,-1.0502938E0,-1.9875745E-1,2.3056774E0,-2.3690873E-1,-1.2618892E-1,-1.02870256E-1,-5.3322005E-1,2.2539435E-2,1.1024702E0,1.6188954E-1,6.4523447E-1,1.7509726E0,4.0701166E-1,-1.02870256E-1,-8.107106E-1,3.7128142E-1,-2.5663334E-1,7.202652E-1,-6.670505E-1,1.0482569E0,-3.680108E-2,-7.139065E-2,-7.189304E-1,-1.3963808E0,-5.3043365E-1,1.8436666E-1,-1.0421977E0,5.386033E-1,-2.9297059E0,1.5555047E0,-1.7775601E0,-2.4898665E-1,1.0449888E0,-4.6696824E-1,-7.009241E-2,1.3214211E-1,6.2538646E-2,-6.40944E-1,-5.1564053E-2,-8.257025E-1,1.0815068E-1,-2.1896306E-2,2.8031778E-1,-2.483974E-2,-1.3417394E0,1.3488337E-1,2.501245E-1,-1.1526667E-1,1.04457274E-1,-2.3711927E-1,1.0087382E-1,-2.897456E-2,1.602515E-1,2.7022073E-1,-7.2265166E-1,1.12295024E-1,-3.089937E-1,1.2804347E-1,-8.553948E-2,1.2469081E-1,2.4224946E-2,-4.6602443E-1,-1.0086287E0,1.7202887E-1,1.8164253E-1,-6.2398326E-1,1.7193744E-1,3.965956E-2,-1.3025248E0,5.8385696E-2],"split_indices":[9,8,14,8,3,8,6,3,4,0,7,9,8,7,4,6,2,0,3,2,7,2,0,3,6,7,7,9,5,8,4,2,6,0,3,9,4,3,2,1,0,6,0,7,8,0,2,0,9,0,8,4,2,0,0,0,0,0,0,0,0,0,0,0,0,0,0,0,0,0,0,0,0,0,0,0,0,0,0,0,0,0,0,0,0,0,0,0,0],"split_type":[0,0,0,0,0,0,0,0,0,0,0,0,0,0,0,0,0,0,0,0,0,0,0,0,0,0,0,0,0,0,0,0,0,0,0,0,0,0,0,0,0,0,0,0,0,0,0,0,0,0,0,0,0,0,0,0,0,0,0,0,0,0,0,0,0,0,0,0,0,0,0,0,0,0,0,0,0,0,0,0,0,0,0,0,0,0,0,0,0],"sum_hessian":[5.554977E3,4.193399E3,1.3615782E3,3.317891E3,8.755077E2,8.965135E2,4.6506476E2,3.298068E3,1.9822989E1,1.2898277E0,8.742179E2,1.0854868E2,7.879648E2,1.5694296E2,3.081218E2,1.5182721E3,1.7797959E3,4.2435603E0,1.5579428E1,1.087941E2,7.6542377E2,1.05977554E2,2.571127E0,1.7651829E1,7.703129E2,1.3805548E2,1.8887493E1,2.689768E1,2.8122412E2,4.5297354E2,1.0652986E3,1.01229816E3,7.674978E2,2.1028295E0,1.3476599E1,1.522172E1,9.357238E1,1.6510422E2,6.003196E2,1.032081E2,2.769455E0,1.4974819E1,2.6770103E0,4.7322522E2,2.9708774E2,1.4186985E0,1.3663678E2,1.2837672E0,1.7603727E1,2.0743692E0,2.482331E1,2.3244691E2,4.8777214E1,3.5069437E2,1.022792E2,1.0585546E3,6.743963E0,9.888954E2,2.3402733E1,3.52353E2,4.151448E2,8.260522E0,5.216077E0,1.4462087E0,1.3775512E1,8.977042E1,3.801966E0,8.699888E1,7.810534E1,4.8917645E2,1.111431E2,5.0978886E1,5.2229214E1,1.6820475E0,1.3292771E1,5.615629E0,4.676096E2,1.0805799E2,1.8902974E2,1.2956082E2,7.075951E0,6.0139656E0,1.1589761E1,2.0702044E1,4.1212664E0,1.7931543E2,5.3131477E1,1.8381661E0,4.693905E1],"tree_param":{"num_deleted":"0","num_feature":"19","num_nodes":"89","size_leaf_vector":"1"}},{"base_weights":[7.392659E-2,4.832418E-2,3.4130523E-1,2.0969486E-2,2.657156E-1,2.812304E-1,7.8369075E-1,4.4799533E-2,-2.3871464E-1,2.9098362E-1,-1.9441972E0,2.9955077E-1,-5.237487E-1,9.287423E-1,-5.2408415E-1,1.8893015E-1,-2.9475935E-2,-2.0075788E0,-1.07713014E-1,3.271043E-1,-4.988977E-1,2.280284E-1,7.3671097E-1,9.978453E-1,4.3867132E-1,2.5965638E-2,2.7629912E-1,-2.514814E-2,-1.1859332E0,-3.6554387E0,6.555209E-1,-2.442976E0,-1.1175347E-2,4.6006852E-1,1.3607842E-1,-1.5892223E0,2.1219312E-1,2.755216E-1,-4.444146E-1,8.6275035E-1,1.3430427E-1,3.0585843E-1,1.0559202E-1,2.5646418E-1,-7.606715E-2,1.6519122E-1,-2.7691223E-2,4.1917875E-2,1.3133529E-1,-1.0095614E-1,6.669906E-3,2.4808826E-1,-1.5562507E0,2.7365637E-1,-5.1964775E-2,-2.5708446E-1,-7.878241E-1,-4.373649E-2,1.860218E-1,-6.074805E-1,1.4447804E-1,-1.637505E-1,1.050707E-1,-7.286126E-1,1.9793515E-1,8.991536E-2,-1.0440657E0,-1.1763318E0,8.46551E-2,2.9094794E-1,1.7191288E-1,-5.04908E-1,2.4048522E-1],"categories":[],"categories_nodes":[],"categories_segments":[],"categories_sizes":[],"default_left":[0,0,0,0,0,0,0,0,0,0,0,0,0,0,0,0,0,0,0,0,0,0,0,0,0,0,0,0,0,0,0,0,0,0,0,0,0,0,0,0,0,0,0,0,0,0,0,0,0,0,0,0,0,0,0,0,0,0,0,0,0,0,0,0,0,0,0,0,0,0,0,0,0],"id":11,"left_children":[1,3,5,7,9,11,13,15,17,19,-1,21,-1,23,-1,25,27,29,31,33,35,37,39,41,43,45,47,49,-1,51,53,55,57,59,61,-1,63,65,67,69,71,-1,-1,-1,-1,-1,-1,-1,-1,-1,-1,-1,-1,-1,-1,-1,-1,-1,-1,-1,-1,-1,-1,-1,-1,-1,-1,-1,-1,-1,-1,-1,-1],"loss_changes":[3.6950134E1,2.9307833E1,1.231636E1,2.71124E1,9.578937E1,1.6004688E1,2.2120083E1,4.2958195E1,8.512011E1,1.5848434E1,0E0,1.2776649E1,0E0,1.3729362E0,0E0,1.942234E1,4.4876152E1,1.135831E2,7.7508705E1,1.3305817E1,8.450666E1,1.1531576E1,4.2698555E0,2.8639603E-1,2.6345718E0,2.9672966E1,1.9528717E1,3.905501E1,0E0,1.12818756E2,2.398426E0,1.7133026E0,2.8240795E1,1.7551712E1,3.1942642E1,0E0,2.7896206E1,3.1422033E1,6.1607025E1,9.203224E-1,1.4905885E1,0E0,0E0,0E0,0E0,0E0,0E0,0E0,0E0,0E0,0E0,0E0,0E0,0E0,0E0,0E0,0E0,0E0,0E0,0E0,0E0,0E0,0E0,0E0,0E0,0E0,0E0,0E0,0E0,0E0,0E0,0E0,0E0],"parents":[2147483647,0,0,1,1,2,2,3,3,4,4,5,5,6,6,7,7,8,8,9,9,11,11,13,13,15,15,16,16,17,17,18,18,19,19,20,20,21,21,22,22,23,23,24,24,25,25,26,26,27,27,29,29,30,30,31,31,32,32,33,33,34,34,36,36,37,37,38,38,39,39,40,40],"right_children":[2,4,6,8,10,12,14,16,18,20,-1,22,-1,24,-1,26,28,30,32,34,36,38,40,42,44,46,48,50,-1,52,54,56,58,60,62,-1,64,66,68,70,72,-1,-1,-1,-1,-1,-1,-1,-1,-1,-1,-1,-1,-1,-1,-1,-1,-1,-1,-1,-1,-1,-1,-1,-1,-1,-1,-1,-1,-1,-1,-1,-1],"split_conditions":[1.4199682E0,5.950806E-1,1.875604E0,9.389537E-1,1.3454533E0,1.6612597E0,2.2470853E0,-5.670317E-1,9.7118133E-1,1.5944846E0,-1.9441972E0,2.6596782E0,-5.237487E-1,8.266523E-1,-5.2408415E-1,-2.5663334E-1,9.0620625E-1,1.5555047E0,-7.1531147E-1,9.7118133E-1,2.3513794E-1,1.0974164E0,2.448276E0,2.0533462E0,3.0979854E-3,-8.936898E-1,-1.003379E0,-8.8525933E-1,-1.1859332E0,-1.6853743E0,2.0085392E0,-1.471216E0,6.289367E-1,-1.113553E0,1.3014395E0,-1.5892223E0,1.2389283E0,2.119E0,1.4765005E-1,-1.3938238E-1,7.140408E-1,3.0585843E-1,1.0559202E-1,2.5646418E-1,-7.606715E-2,1.6519122E-1,-2.7691223E-2,4.1917875E-2,1.3133529E-1,-1.0095614E-1,6.669906E-3,2.4808826E-1,-1.5562507E0,2.7365637E-1,-5.1964775E-2,-2.5708446E-1,-7.878241E-1,-4.373649E-2,1.860218E-1,-6.074805E-1,1.4447804E-1,-1.637505E-1,1.050707E-1,-7.286126E-1,1.9793515E-1,8.991536E-2,-1.0440657E0,-1.1763318E0,8.46551E-2,2.9094794E-1,1.7191288E-1,-5.04908E-1,2.4048522E-1],"split_indices":[1,7,3,3,1,3,1,4,3,8,0,2,0,6,0,9,3,9,2,3,6,3,1,1,7,5,4,8,0,5,9,1,4,4,3,0,7,2,4,4,7,0,0,0,0,0,0,0,0,0,0,0,0,0,0,0,0,0,0,0,0,0,0,0,0,0,0,0,0,0,0,0,0],"split_type":[0,0,0,0,0,0,0,0,0,0,0,0,0,0,0,0,0,0,0,0,0,0,0,0,0,0,0,0,0,0,0,0,0,0,0,0,0,0,0,0,0,0,0,0,0,0,0,0,0,0,0,0,0,0,0,0,0,0,0,0,0,0,0,0,0,0,0,0,0,0,0,0,0],"sum_hessian":[5.3991055E3,4.9283774E3,4.7072815E2,4.378518E3,5.4985913E2,4.1588742E2,5.4840748E1,4.011251E3,3.6726706E2,5.487606E2,1.0984731E0,4.1300693E2,2.8804922E0,5.2466465E1,2.3742802E0,1.36362E3,2.647631E3,2.4336454E1,3.429306E2,5.2532385E2,2.3436777E1,3.5624454E2,5.676239E1,4.507455E1,7.3919153E0,4.7637012E2,8.872498E2,2.6457192E3,1.9118359E0,1.480368E1,9.532774E0,1.2648767E1,3.3028183E2,3.0890265E2,2.164212E2,2.1924205E0,2.1244356E1,3.332949E2,2.2949636E1,4.658368E1,1.0178708E1,4.305075E1,2.0237994E0,4.469572E0,2.9223433E0,8.695627E1,3.8941385E2,4.817146E2,4.0553522E2,3.486185E2,2.2971008E3,3.8881733E0,1.0915507E1,7.2016606E0,2.3311136E0,1.8970292E0,1.0751739E1,2.7286313E2,5.7418716E1,1.8534335E0,3.0704922E2,5.135364E1,1.6506755E2,2.4373245E0,1.8807032E1,3.320757E2,1.2191876E0,3.2071683E0,1.9742468E1,3.2298527E1,1.4285156E1,2.3249493E0,7.8537583E0],"tree_param":{"num_deleted":"0","num_feature":"19","num_nodes":"73","size_leaf_vector":"1"}},{"base_weights":[5.606684E-2,3.52179E-2,3.1082773E-1,2.3663321E-1,9.095612E-3,-1.1664636E0,3.4388217E-1,2.584104E-1,-2.8101718E0,7.810814E-2,-1.0401574E-1,-8.2476056E-1,2.4573186E-1,-3.7433425E-1,4.033785E-1,5.67928E-1,1.8845825E-1,-9.992926E-1,-3.00339E-1,2.7044865E-1,7.5845285E-3,-9.7201355E-2,-1.3789186E0,-2.1861851E0,1.743172E-1,-4.0141872E-1,4.1654754E-1,6.0236967E-1,-3.9666802E-1,-6.8062985E-1,2.9087052E-1,2.8087085E-1,-6.874567E-1,-5.826487E-1,4.656393E-2,-8.124926E-2,-1.344581E0,9.405808E-2,-1.309666E0,8.847027E-1,-1.0086201E0,8.228312E-1,3.7879643E-1,1.9683932E-1,-3.3873446E-2,-9.886618E-1,-2.8391322E-2,9.415628E-2,-7.208246E-1,-7.099113E-1,8.6927116E-2,-7.4239534E-1,6.30082E-2,-5.4592725E-2,3.511562E-2,-2.9891027E-2,1.997734E-1,-1.329291E0,-1.0573341E-1,2.8853616E-1,1.1713852E-1,-1.426392E0,1.4260164E-1,2.950064E-2,2.8096244E-1,-2.1975737E-2,1.2896338E-1],"categories":[],"categories_nodes":[],"categories_segments":[],"categories_sizes":[],"default_left":[0,0,0,0,0,0,0,0,0,0,0,0,0,0,0,0,0,0,0,0,0,0,0,0,0,0,0,0,0,0,0,0,0,0,0,0,0,0,0,0,0,0,0,0,0,0,0,0,0,0,0,0,0,0,0,0,0,0,0,0,0,0,0,0,0,0,0],"id":12,"left_children":[1,3,5,7,9,11,13,15,17,19,21,-1,-1,23,25,27,29,-1,-1,31,33,35,-1,37,39,-1,41,43,-1,45,47,49,-1,51,53,55,57,-1,-1,59,61,63,65,-1,-1,-1,-1,-1,-1,-1,-1,-1,-1,-1,-1,-1,-1,-1,-1,-1,-1,-1,-1,-1,-1,-1,-1],"loss_changes":[2.7990467E1,2.564301E1,1.9868599E1,3.785192E1,3.3696484E1,3.0387024E1,1.684681E1,1.1941593E1,4.8583603E-1,3.6362885E1,4.9628548E1,0E0,0E0,3.0610077E1,8.8433E0,7.4422874E0,4.0730583E1,0E0,0E0,1.9847862E1,4.5181892E1,3.2410732E1,0E0,4.0276047E1,2.128517E1,0E0,5.2000313E0,3.955925E0,0E0,7.370767E1,2.6018734E1,1.755701E1,0E0,1.8297824E2,2.969468E1,2.2250257E1,6.1432537E1,0E0,0E0,2.2240353E-1,5.5473083E1,2.3545837E0,7.6668625E0,0E0,0E0,0E0,0E0,0E0,0E0,0E0,0E0,0E0,0E0,0E0,0E0,0E0,0E0,0E0,0E0,0E0,0E0,0E0,0E0,0E0,0E0,0E0,0E0],"parents":[2147483647,0,0,1,1,2,2,3,3,4,4,5,5,6,6,7,7,8,8,9,9,10,10,13,13,14,14,15,15,16,16,19,19,20,20,21,21,23,23,24,24,26,26,27,27,29,29,30,30,31,31,33,33,34,34,35,35,36,36,39,39,40,40,41,41,42,42],"right_children":[2,4,6,8,10,12,14,16,18,20,22,-1,-1,24,26,28,30,-1,-1,32,34,36,-1,38,40,-1,42,44,-1,46,48,50,-1,52,54,56,58,-1,-1,60,62,64,66,-1,-1,-1,-1,-1,-1,-1,-1,-1,-1,-1,-1,-1,-1,-1,-1,-1,-1,-1,-1,-1,-1,-1,-1],"split_conditions":[3.8453627E0,-1.3570957E0,-1.712262E0,2.202845E0,2.9942125E-2,1.9154934E0,-7.3370546E-1,-1.0911641E0,2.4049957E0,8.242301E-2,1.2783897E0,-8.2476056E-1,2.4573186E-1,-2.8034133E-1,-1.5643598E0,3.7537096E0,-8.495445E-1,-9.992926E-1,-3.00339E-1,2.4683895E0,2.1282436E-1,3.4468665E0,-1.3789186E0,-2.037387E0,1.783019E-2,-4.0141872E-1,-1.0502058E0,6.589917E-1,-3.9666802E-1,-5.076992E-1,1.4543985E0,-1.0278513E0,-6.874567E-1,5.007834E-1,-7.189304E-1,3.470359E0,-2.5663334E-1,9.405808E-2,-1.309666E0,1.0362158E0,1.0680699E0,-4.8727617E-1,-3.758446E-1,1.9683932E-1,-3.3873446E-2,-9.886618E-1,-2.8391322E-2,9.415628E-2,-7.208246E-1,-7.099113E-1,8.6927116E-2,-7.4239534E-1,6.30082E-2,-5.4592725E-2,3.511562E-2,-2.9891027E-2,1.997734E-1,-1.329291E0,-1.0573341E-1,2.8853616E-1,1.1713852E-1,-1.426392E0,1.4260164E-1,2.950064E-2,2.8096244E-1,-2.1975737E-2,1.2896338E-1],"split_indices":[18,4,4,6,5,1,2,2,5,1,1,0,0,6,1,16,2,0,0,6,1,11,0,3,6,0,1,8,0,7,6,1,0,8,6,6,9,0,0,1,6,7,1,0,0,0,0,0,0,0,0,0,0,0,0,0,0,0,0,0,0,0,0,0,0,0,0],"split_type":[0,0,0,0,0,0,0,0,0,0,0,0,0,0,0,0,0,0,0,0,0,0,0,0,0,0,0,0,0,0,0,0,0,0,0,0,0,0,0,0,0,0,0,0,0,0,0,0,0,0,0,0,0,0,0,0,0,0,0,0,0,0,0,0,0,0,0],"sum_hessian":[5.270852E3,4.873182E3,3.976698E2,5.58537E2,4.314645E3,7.952715E0,3.8971707E2,5.554818E2,3.0551457E0,2.679881E3,1.634764E3,4.2112503E0,3.7414646E0,2.9409174E1,3.6030792E2,1.0108624E2,4.5439557E2,1.7189782E0,1.3361676E0,7.1822266E2,1.9616586E3,1.6333081E3,1.4558897E0,6.14185E0,2.3267324E1,1.9491659E0,3.5835873E2,9.994637E1,1.1398712E0,4.7305656E1,4.0708994E2,7.1619946E2,2.02316E0,1.206597E2,1.8409989E3,1.6137361E3,1.9572102E1,3.259443E0,2.8824072E0,1.4694811E1,8.572513E0,2.8699032E1,3.2965973E2,9.303635E1,6.9100275E0,7.8137965E0,3.949186E1,4.0452176E2,2.5681658E0,1.508514E0,7.14691E2,3.499938E1,8.5660324E1,4.335954E2,1.4074034E3,1.5758219E3,3.791407E1,3.9179258E0,1.5654175E1,1.1893802E1,2.8010094E0,1.8070011E0,6.765512E0,4.1462574E0,2.4552774E1,3.3425407E1,2.962343E2],"tree_param":{"num_deleted":"0","num_feature":"19","num_nodes":"67","size_leaf_vector":"1"}},{"base_weights":[4.299041E-2,2.5131864E-2,3.0371293E-1,4.0954295E-1,1.1301697E-2,-6.832082E-1,3.2254046E-1,1.4837648E-1,6.5389484E-1,-1.1846758E-2,2.8189197E-1,4.3135995E-1,-9.230276E-2,2.6952198E-1,-1.1595961E0,7.023453E-1,-4.4262967E-1,2.6185896E-2,-3.4912103E-1,3.5080162E-1,-1.015019E0,4.582276E-1,-1.0616229E0,2.131776E-1,-1.9202176E0,4.0720585E-1,-1.5292913E0,8.202822E-1,1.8852167E-1,-6.235812E-1,2.125326E-1,4.0397197E-2,-5.551764E-1,-3.0444682E-1,-3.7000666E0,4.6560743E-1,-4.2348942E-1,-1.0446515E-1,-5.04389E0,7.590329E-1,3.2764325E-1,-9.586846E-1,2.1937947E-1,-3.4286734E-1,5.8877397E-1,-1.5453827E0,1.6718897E-1,-4.7370827E-1,1.4739677E-1,-1.4982884E0,2.0743282E-1,2.782729E-1,1.7363715E-1,-2.9909527E-1,1.8838577E-1,8.6405635E-2,3.1266266E-3,-1.064268E-1,-1.4480569E0,5.1399257E-2,-1.5021294E-1,1.6296579E-1,-1.8771904E0,1.4944127E-1,-2.5139388E-1,5.404061E-3,-9.4531214E-1,-9.646069E-1,1.3240772E-1,-4.0405238E-1,-1.8086696E0,2.8224224E-1,1.8446575E-1,-3.1658304E-1,1.1106602E-1,1.2325084E-1,-4.3616447E-1,-1.6390647E-1,2.1011536E-1],"categories":[],"categories_nodes":[],"categories_segments":[],"categories_sizes":[],"default_left":[0,0,0,0,0,0,0,0,0,0,0,0,0,0,0,0,0,0,0,0,0,0,0,0,0,0,0,0,0,0,0,0,0,0,0,0,0,0,0,0,0,0,0,0,0,0,0,0,0,0,0,0,0,0,0,0,0,0,0,0,0,0,0,0,0,0,0,0,0,0,0,0,0,0,0,0,0,0,0],"id":13,"left_children":[1,3,5,7,9,-1,11,13,15,17,19,21,23,25,-1,27,29,31,33,35,37,39,41,43,45,47,49,51,53,-1,-1,55,57,59,61,63,65,67,69,71,73,-1,-1,75,77,-1,-1,-1,-1,-1,-1,-1,-1,-1,-1,-1,-1,-1,-1,-1,-1,-1,-1,-1,-1,-1,-1,-1,-1,-1,-1,-1,-1,-1,-1,-1,-1,-1,-1],"loss_changes":[2.409236E1,2.5755041E1,1.6854439E1,1.0639362E1,2.9305273E1,0E0,1.4945652E1,4.121247E1,4.9129333E0,5.5299526E1,3.3306465E1,1.098613E1,3.9183548E1,2.0715761E1,0E0,4.8959465E0,9.530371E0,3.203285E1,6.427286E1,3.1384354E1,6.865637E1,9.878742E0,2.1194132E1,1.2815512E1,8.326398E1,1.3498687E1,4.945699E1,1.2117691E0,9.407764E0,0E0,0E0,2.8075788E1,7.74955E1,4.044438E1,6.479387E1,1.3394142E1,5.5241714E1,2.9272053E1,4.4631042E0,1.4465675E0,1.1079723E1,0E0,0E0,2.151579E1,4.996176E0,0E0,0E0,0E0,0E0,0E0,0E0,0E0,0E0,0E0,0E0,0E0,0E0,0E0,0E0,0E0,0E0,0E0,0E0,0E0,0E0,0E0,0E0,0E0,0E0,0E0,0E0,0E0,0E0,0E0,0E0,0E0,0E0,0E0,0E0],"parents":[2147483647,0,0,1,1,2,2,3,3,4,4,6,6,7,7,8,8,9,9,10,10,11,11,12,12,13,13,15,15,16,16,17,17,18,18,19,19,20,20,21,21,22,22,23,23,24,24,25,25,26,26,27,27,28,28,31,31,32,32,33,33,34,34,35,35,36,36,37,37,38,38,39,39,40,40,43,43,44,44],"right_children":[2,4,6,8,10,-1,12,14,16,18,20,22,24,26,-1,28,30,32,34,36,38,40,42,44,46,48,50,52,54,-1,-1,56,58,60,62,64,66,68,70,72,74,-1,-1,76,78,-1,-1,-1,-1,-1,-1,-1,-1,-1,-1,-1,-1,-1,-1,-1,-1,-1,-1,-1,-1,-1,-1,-1,-1,-1,-1,-1,-1,-1,-1,-1,-1,-1,-1],"split_conditions":[2.119E0,-2.037387E0,-1.7586511E0,-4.6574494E-1,3.4468665E0,-6.832082E-1,8.216266E-1,-4.848381E-1,1.2798334E0,2.5614552E0,1.5225332E0,1.6701494E0,1.1865827E0,8.722826E-1,-1.1595961E0,3.391357E-1,2.6871064E-1,1.7175493E0,1.7175493E0,-1.0200529E-1,2.955133E-1,-3.3221617E-1,1.5555047E0,-1.0090746E0,1.925598E0,-1.3854203E0,1.4087617E0,-3.5904464E-1,3.3204845E-1,-6.235812E-1,2.125326E-1,-5.217895E-1,1.0855215E0,-5.791606E-1,-7.757825E-1,7.131218E0,-1.5229942E-1,-2.042756E-1,-6.857793E-1,-7.8208E-1,-1.873723E-1,-9.586846E-1,2.1937947E-1,-1.2715658E0,2.3945826E-1,-1.5453827E0,1.6718897E-1,-4.7370827E-1,1.4739677E-1,-1.4982884E0,2.0743282E-1,2.782729E-1,1.7363715E-1,-2.9909527E-1,1.8838577E-1,8.6405635E-2,3.1266266E-3,-1.064268E-1,-1.4480569E0,5.1399257E-2,-1.5021294E-1,1.6296579E-1,-1.8771904E0,1.4944127E-1,-2.5139388E-1,5.404061E-3,-9.4531214E-1,-9.646069E-1,1.3240772E-1,-4.0405238E-1,-1.8086696E0,2.8224224E-1,1.8446575E-1,-3.1658304E-1,1.1106602E-1,1.2325084E-1,-4.3616447E-1,-1.6390647E-1,2.1011536E-1],"split_indices":[2,3,4,7,11,0,5,7,4,13,10,8,14,1,0,8,1,2,2,5,6,6,9,8,6,2,8,8,1,0,0,7,5,8,4,11,1,8,8,8,6,0,0,4,3,0,0,0,0,0,0,0,0,0,0,0,0,0,0,0,0,0,0,0,0,0,0,0,0,0,0,0,0,0,0,0,0,0,0],"split_type":[0,0,0,0,0,0,0,0,0,0,0,0,0,0,0,0,0,0,0,0,0,0,0,0,0,0,0,0,0,0,0,0,0,0,0,0,0,0,0,0,0,0,0,0,0,0,0,0,0,0,0,0,0,0,0,0,0,0,0,0,0,0,0,0,0,0,0,0,0,0,0,0,0,0,0,0,0,0,0],"sum_hessian":[5.174976E3,4.8442583E3,3.3071768E2,1.6723831E2,4.67702E3,1.5262355E0,3.2919144E2,8.16147E1,8.562361E1,4.3093223E3,3.676977E2,2.6075244E2,6.843902E1,8.012901E1,1.4856869E0,8.234466E1,3.278955E0,3.8734556E3,4.3586694E2,3.4983896E2,1.7858719E1,2.5682373E2,3.9287105E0,5.9396137E1,9.042881E0,7.515051E1,4.9785075E0,6.648749E1,1.5857167E1,1.0214329E0,2.257522E0,3.7819373E3,9.15183E1,4.3120898E2,4.6579456E0,3.0501273E2,4.4826237E1,1.5403375E1,2.4553447E0,7.628535E1,1.8053838E2,1.4365119E0,2.4921987E0,2.3981012E1,3.5415123E1,3.456224E0,5.586657E0,2.3312485E0,7.281926E1,1.4566941E0,3.5218134E0,4.406742E1,2.2420067E1,3.945123E0,1.1912044E1,4.07447E2,3.3744902E3,8.8451355E1,3.0669477E0,1.2596749E2,3.0524152E2,2.047707E0,2.6102388E0,2.9818948E2,6.8232374E0,3.943618E1,5.3900566E0,1.5691686E0,1.3834206E1,1.0145935E0,1.4407512E0,3.12948E1,4.4990543E1,4.681909E0,1.7585646E2,1.4663573E1,9.31744E0,2.8217254E0,3.25934E1],"tree_param":{"num_deleted":"0","num_feature":"19","num_nodes":"79","size_leaf_vector":"1"}},{"base_weights":[3.2785874E-2,-3.6173377E-3,1.529958E-1,-4.1486233E-2,1.3815567E-1,6.5457726E-1,1.30105E-1,-3.6150645E-2,-5.1709685E0,3.6110058E-1,-1.9662503E-2,7.891745E-1,-6.072331E-1,-3.012355E-1,1.7017376E-1,1.0613803E-1,-1.0755108E-1,-4.8263553E-1,-1.8238684E0,4.0754384E-1,-1.118139E0,-1.7522931E0,1.0605417E-2,8.7758386E-1,-1.6005947E-1,-4.809105E-1,1.32578E-1,-1.3778336E0,-1.3153382E-1,3.2876658E-1,7.918158E-2,-1.0855598E-1,2.1081859E-1,-1.2264723E0,-9.1404155E-2,4.601331E-1,-2.829859E-1,6.4780813E-1,-1.2896392E0,5.6160856E-2,-1.6823814E0,3.6538788E-3,9.341854E-1,-4.7373736E-1,-1.6298364E0,6.048078E-1,-3.5695848E-1,-4.229269E-2,4.1396767E-1,2.3637095E-1,-1.2467703E-1,2.341347E-1,-7.990247E-2,3.2622635E-2,1.8550396E-1,2.27894E-1,-8.498516E-1,1.7481571E-2,-5.7935964E-2,1.8572769E-1,7.748905E-2,-5.170042E-1,1.0861772E-1,2.3929968E-1,1.0477311E-1,8.8587664E-2,-5.2036885E-2,-1.4008168E0,-5.979715E-3,1.3855702E-1,3.0092132E-1,1.021338E-1,-7.346188E-1,-1.4921372E-1,2.5368115E-1,-4.3253444E-2,-2.07171E0,8.019168E-2,-4.94163E-1,-7.167906E-1,1.2930338E-1,-4.037435E-1,9.016135E-2,-1.0787827E0,-1.6581805E-2],"categories":[],"categories_nodes":[],"categories_segments":[],"categories_sizes":[],"default_left":[0,0,0,0,0,0,0,0,0,0,0,0,0,0,0,0,0,0,0,0,0,0,0,0,0,0,0,0,0,0,0,0,0,0,0,0,0,0,0,0,0,0,0,0,0,0,0,0,0,0,0,0,0,0,0,0,0,0,0,0,0,0,0,0,0,0,0,0,0,0,0,0,0,0,0,0,0,0,0,0,0,0,0,0,0],"id":14,"left_children":[1,3,5,7,9,11,13,15,17,19,21,23,25,27,29,31,33,-1,-1,35,37,-1,39,41,-1,-1,-1,43,45,47,49,51,53,55,57,59,61,63,-1,65,67,-1,69,71,-1,73,75,77,79,81,83,-1,-1,-1,-1,-1,-1,-1,-1,-1,-1,-1,-1,-1,-1,-1,-1,-1,-1,-1,-1,-1,-1,-1,-1,-1,-1,-1,-1,-1,-1,-1,-1,-1,-1],"loss_changes":[2.2318472E1,2.1027555E1,1.3526012E1,8.440792E1,2.9057041E1,9.224516E0,1.9667536E1,3.1391161E1,5.9165955E-1,2.3969307E1,8.540893E1,5.960186E0,6.484275E0,1.7510082E1,1.4969688E1,2.3228575E1,3.7055157E1,0E0,0E0,1.220752E1,6.280613E1,0E0,3.733578E1,2.1634674E0,0E0,0E0,0E0,4.5376923E1,1.4283961E1,1.1984634E1,2.1230774E1,4.7773357E1,2.8821177E1,9.526108E1,3.0901426E1,9.767464E0,2.306633E1,6.772709E-2,0E0,2.5923395E1,6.289787E1,0E0,8.922386E-1,1.9792908E1,0E0,5.79127E0,9.02982E1,3.6013603E1,1.5742386E1,3.836596E1,6.935634E1,0E0,0E0,0E0,0E0,0E0,0E0,0E0,0E0,0E0,0E0,0E0,0E0,0E0,0E0,0E0,0E0,0E0,0E0,0E0,0E0,0E0,0E0,0E0,0E0,0E0,0E0,0E0,0E0,0E0,0E0,0E0,0E0,0E0,0E0],"parents":[2147483647,0,0,1,1,2,2,3,3,4,4,5,5,6,6,7,7,8,8,9,9,10,10,11,11,12,12,13,13,14,14,15,15,16,16,19,19,20,20,22,22,23,23,27,27,28,28,29,29,30,30,31,31,32,32,33,33,34,34,35,35,36,36,37,37,39,39,40,40,42,42,43,43,45,45,46,46,47,47,48,48,49,49,50,50],"right_children":[2,4,6,8,10,12,14,16,18,20,22,24,26,28,30,32,34,-1,-1,36,38,-1,40,42,-1,-1,-1,44,46,48,50,52,54,56,58,60,62,64,-1,66,68,-1,70,72,-1,74,76,78,80,82,84,-1,-1,-1,-1,-1,-1,-1,-1,-1,-1,-1,-1,-1,-1,-1,-1,-1,-1,-1,-1,-1,-1,-1,-1,-1,-1,-1,-1,-1,-1,-1,-1,-1,-1],"split_conditions":[6.4943564E-1,1.674004E-1,-1.3071858E0,1.6071938E-1,-1.8384973E-2,1.047634E0,-1.0317558E0,-6.324926E-1,-2.5431372E-2,1.6349999E0,1.7737444E-1,-3.0270907E-1,-7.169144E-2,-3.0132952E-1,-7.6174235E-1,-4.656633E-1,-5.9030426E-1,-4.8263553E-1,-1.8238684E0,1.5714277E0,-1.2895321E0,-1.7522931E0,3.7537096E0,-1.3633237E0,-1.6005947E-1,-4.809105E-1,1.32578E-1,6.3569844E-2,-1.9123898E0,-4.0916207E-1,-2.393502E-1,-1.7789464E0,4.282687E-1,-5.1510847E-1,-5.467365E-1,3.1297645E-1,1.4855034E0,1.5093863E0,-1.2896392E0,4.52633E-1,4.5127255E-1,3.6538788E-3,-1.1575847E0,4.9355263E-1,-1.6298364E0,-8.990035E-1,-1.0611959E0,4.251185E-1,-8.955773E-1,-6.2979496E-1,-2.1509588E-1,2.341347E-1,-7.990247E-2,3.2622635E-2,1.8550396E-1,2.27894E-1,-8.498516E-1,1.7481571E-2,-5.7935964E-2,1.8572769E-1,7.748905E-2,-5.170042E-1,1.0861772E-1,2.3929968E-1,1.0477311E-1,8.8587664E-2,-5.2036885E-2,-1.4008168E0,-5.979715E-3,1.3855702E-1,3.0092132E-1,1.021338E-1,-7.346188E-1,-1.4921372E-1,2.5368115E-1,-4.3253444E-2,-2.07171E0,8.019168E-2,-4.94163E-1,-7.167906E-1,1.2930338E-1,-4.037435E-1,9.016135E-2,-1.0787827E0,-1.6581805E-2],"split_indices":[9,7,2,7,6,8,2,3,8,4,7,7,7,1,5,8,3,0,0,7,5,0,16,8,0,0,0,4,3,7,7,4,6,7,4,2,3,1,0,8,1,0,5,0,0,4,2,8,8,5,7,0,0,0,0,0,0,0,0,0,0,0,0,0,0,0,0,0,0,0,0,0,0,0,0,0,0,0,0,0,0,0,0,0,0],"split_type":[0,0,0,0,0,0,0,0,0,0,0,0,0,0,0,0,0,0,0,0,0,0,0,0,0,0,0,0,0,0,0,0,0,0,0,0,0,0,0,0,0,0,0,0,0,0,0,0,0,0,0,0,0,0,0,0,0,0,0,0,0,0,0,0,0,0,0,0,0,0,0,0,0,0,0,0,0,0,0,0,0,0,0,0,0],"sum_hessian":[5.099041E3,3.9145627E3,1.1844785E3,3.0899229E3,8.246399E2,5.049257E1,1.133986E3,3.087718E3,2.2047365E0,3.4126175E2,4.8337817E2,4.5964146E1,4.5284247E0,9.583232E1,1.0381537E3,1.0315438E3,2.0561743E3,1.0111411E0,1.1935954E0,3.3157584E2,9.685896E0,1.5073092E0,4.8187085E2,4.3399834E1,2.5643108E0,2.0524423E0,2.4759822E0,1.20795765E1,8.375274E1,3.7753107E2,6.6062256E2,3.3809427E2,6.934495E2,2.8183836E1,2.0279904E3,3.0842084E2,2.315502E1,6.7400513E0,2.9458444E0,4.7018576E2,1.1685084E1,2.7388964E0,4.066094E1,1.0790538E1,1.2890384E0,1.9236015E1,6.451672E1,7.059339E1,3.0693768E2,3.7291745E2,2.877051E2,5.036704E1,2.8772723E2,5.55561E2,1.3788857E2,1.2837989E1,1.5345847E1,8.207187E2,1.2072717E3,1.7138036E2,1.3704047E2,6.6450973E0,1.6509924E1,3.3745863E0,3.365465E0,2.3018109E2,2.4000468E2,3.531362E0,8.153722E0,6.155969E0,3.4504967E1,8.226723E0,2.5638154E0,3.2579517E0,1.5978064E1,6.3476284E1,1.0404418E0,5.9876328E1,1.0717061E1,1.0137383E0,3.0592395E2,1.3756076E1,3.5916138E2,4.6435986E0,2.8306152E2],"tree_param":{"num_deleted":"0","num_feature":"19","num_nodes":"85","size_leaf_vector":"1"}},{"base_weights":[2.6891747E-2,5.1661027E-3,2.0217341E-1,4.925105E-2,-9.42078E-2,2.7860582E-1,-3.9403748E-2,2.1329845E-1,3.899303E-4,-1.3229611E0,-8.626978E-2,-4.5477262E-1,2.9168743E-1,-4.0023968E-1,4.501024E-1,-9.7376215E-1,2.2431475E-1,2.4817148E-1,-3.2890085E-2,-1.3959424E-1,4.536314E-1,5.058776E-1,1.8508895E-1,-3.1087759E0,-1.6102967E-1,-7.21875E-1,6.3180786E-1,1.4801744E-1,5.9569776E-1,-1.3113481E-1,4.284749E-1,-4.797296E-1,-3.5972688E-3,-1.2696832E-1,-2.066891E0,5.2737045E-1,-9.277925E-1,-4.157183E-1,5.7670385E-1,-2.596147E0,2.3089658E-1,-1.5182174E0,2.0441441E-1,3.7692577E-1,-1.0820415E0,-1.9969236E0,4.3082735E-1,7.800604E-1,-8.4213845E-2,4.7134697E-2,-7.8197634E-1,-1.9928743E-1,2.0203348E-1,1.9504787E-2,-1.7779988E0,1.389161E-1,-8.4153223E-1,-4.8905942E-1,2.4806703E-2,-1.4118306E-1,6.1460664E-3,-2.1926014E-2,-1.6051711E-1,5.4635465E-2,2.7058116E-1,2.21541E-1,-6.7791647E-1,2.0459746E-1,2.3207176E-2,3.280038E-2,-1.4463894E0,1.2594418E-1,-2.0373395E-2,-6.9162107E-1,1.6139334E-1,-1.2792497E0,-9.630124E-3,-1.1936799E0,5.1887436E-3,2.0724031E-1,6.9575547E-3,2.8010604E-1,1.1969193E-1,-4.927577E-1,2.193284E-1],"categories":[],"categories_nodes":[],"categories_segments":[],"categories_sizes":[],"default_left":[0,0,0,0,0,0,0,0,0,0,0,0,0,0,0,0,0,0,0,0,0,0,0,0,0,0,0,0,0,0,0,0,0,0,0,0,0,0,0,0,0,0,0,0,0,0,0,0,0,0,0,0,0,0,0,0,0,0,0,0,0,0,0,0,0,0,0,0,0,0,0,0,0,0,0,0,0,0,0,0,0,0,0,0,0],"id":15,"left_children":[1,3,5,7,9,11,13,15,17,-1,19,-1,21,23,25,-1,27,29,31,33,35,37,39,41,43,45,47,49,51,53,55,57,59,61,-1,63,-1,65,67,69,71,-1,-1,73,75,77,79,81,83,-1,-1,-1,-1,-1,-1,-1,-1,-1,-1,-1,-1,-1,-1,-1,-1,-1,-1,-1,-1,-1,-1,-1,-1,-1,-1,-1,-1,-1,-1,-1,-1,-1,-1,-1,-1],"loss_changes":[1.9202482E1,1.9664843E1,1.0278727E1,2.4922602E1,4.6875446E1,1.0361736E1,2.3942234E1,2.791998E1,1.9772049E1,0E0,3.9733177E1,0E0,9.503647E0,5.001824E1,1.2713143E1,0E0,2.0093277E1,1.947287E1,2.7666513E1,1.06067154E2,3.40814E1,9.31934E0,3.6556763E1,4.9855827E1,3.6427696E1,1.2901487E1,5.4119797E0,1.5250702E1,1.2305847E1,1.0524363E2,2.2841995E1,8.4276535E1,2.2333725E1,2.7523212E1,0E0,1.566716E1,0E0,2.4033978E1,6.7606125E0,2.8549753E1,1.5754385E1,0E0,0E0,2.1386333E1,9.0286064E1,1.63065E1,5.271301E-1,2.0759964E0,1.3323722E1,0E0,0E0,0E0,0E0,0E0,0E0,0E0,0E0,0E0,0E0,0E0,0E0,0E0,0E0,0E0,0E0,0E0,0E0,0E0,0E0,0E0,0E0,0E0,0E0,0E0,0E0,0E0,0E0,0E0,0E0,0E0,0E0,0E0,0E0,0E0,0E0],"parents":[2147483647,0,0,1,1,2,2,3,3,4,4,5,5,6,6,7,7,8,8,10,10,12,12,13,13,14,14,16,16,17,17,18,18,19,19,20,20,21,21,22,22,23,23,24,24,25,25,26,26,27,27,28,28,29,29,30,30,31,31,32,32,33,33,35,35,37,37,38,38,39,39,40,40,43,43,44,44,45,45,46,46,47,47,48,48],"right_children":[2,4,6,8,10,12,14,16,18,-1,20,-1,22,24,26,-1,28,30,32,34,36,38,40,42,44,46,48,50,52,54,56,58,60,62,-1,64,-1,66,68,70,72,-1,-1,74,76,78,80,82,84,-1,-1,-1,-1,-1,-1,-1,-1,-1,-1,-1,-1,-1,-1,-1,-1,-1,-1,-1,-1,-1,-1,-1,-1,-1,-1,-1,-1,-1,-1,-1,-1,-1,-1,-1,-1],"split_conditions":[5.950806E-1,2.393583E-1,1.1638608E0,-8.936898E-1,-1.539405E0,-1.59044E0,6.4943564E-1,-3.0132952E-1,-5.2501917E-1,-1.3229611E0,1.6082418E0,-4.5477262E-1,-3.3858705E-1,1.3102763E0,-5.458337E-2,-9.7376215E-1,4.0232524E-2,-8.184998E-1,-1.2532657E0,5.649052E-1,2.1502159E0,-7.337424E-1,-2.566205E-1,3.335289E0,3.6185446E-1,1.7808179E0,1.1163735E0,6.9608006E0,-1.0502938E0,-9.668625E-1,1.0213127E0,-4.2528417E-2,-7.6174235E-1,1.5225332E0,-2.066891E0,1.7808179E0,-9.277925E-1,-3.5639316E-1,6.289367E-1,-4.1751292E-1,4.765556E-1,-1.5182174E0,2.0441441E-1,-3.199583E-1,1.732127E0,1.0774567E0,-1.6873096E0,1.1865827E0,1.3651402E0,4.7134697E-2,-7.8197634E-1,-1.9928743E-1,2.0203348E-1,1.9504787E-2,-1.7779988E0,1.389161E-1,-8.4153223E-1,-4.8905942E-1,2.4806703E-2,-1.4118306E-1,6.1460664E-3,-2.1926014E-2,-1.6051711E-1,5.4635465E-2,2.7058116E-1,2.21541E-1,-6.7791647E-1,2.0459746E-1,2.3207176E-2,3.280038E-2,-1.4463894E0,1.2594418E-1,-2.0373395E-2,-6.9162107E-1,1.6139334E-1,-1.2792497E0,-9.630124E-3,-1.1936799E0,5.1887436E-3,2.0724031E-1,6.9575547E-3,2.8010604E-1,1.1969193E-1,-4.927577E-1,2.193284E-1],"split_indices":[7,3,4,5,6,1,9,1,7,0,8,0,1,4,6,0,3,3,8,7,1,4,1,10,1,12,6,10,2,3,1,6,5,10,0,12,0,6,4,8,6,0,0,1,4,2,1,14,3,0,0,0,0,0,0,0,0,0,0,0,0,0,0,0,0,0,0,0,0,0,0,0,0,0,0,0,0,0,0,0,0,0,0,0,0],"split_type":[0,0,0,0,0,0,0,0,0,0,0,0,0,0,0,0,0,0,0,0,0,0,0,0,0,0,0,0,0,0,0,0,0,0,0,0,0,0,0,0,0,0,0,0,0,0,0,0,0,0,0,0,0,0,0,0,0,0,0,0,0,0,0,0,0,0,0,0,0,0,0,0,0,0,0,0,0,0,0,0,0,0,0,0,0],"sum_hessian":[5.0418013E3,4.4867153E3,5.550857E2,3.108296E3,1.3784197E3,4.2155646E2,1.3352922E2,7.1256134E2,2.3957344E3,1.5126253E0,1.376907E3,2.2194145E0,4.1933704E2,7.697213E1,5.6557095E1,1.3298792E0,7.1123145E2,2.8291022E2,2.1128242E3,1.253813E3,1.2309399E2,1.3810153E2,2.812355E2,5.272821E0,7.169931E1,7.192649E0,4.9364445E1,5.911778E2,1.20053635E2,9.1240105E1,1.916701E2,1.2904004E2,1.9837842E3,1.252489E3,1.323962E0,1.2142053E2,1.6734564E0,9.508368E0,1.2859317E2,3.6548402E0,2.7758066E2,3.259127E0,2.013694E0,4.563502E1,2.6064291E1,3.0673501E0,4.125299E0,4.0822662E1,8.541781E0,5.9017145E2,1.0063229E0,6.538871E0,1.1351476E2,8.920957E1,2.0305336E0,1.9048987E2,1.1802316E0,4.1746323E1,8.729371E1,9.637859E1,1.8874056E3,1.1074473E3,1.4504172E2,6.395604E1,5.7464493E1,6.216746E0,3.2916217E0,1.0589858E2,2.2694586E1,2.0785136E0,1.5763266E0,1.6981342E2,1.0776726E2,1.8306593E0,4.3804363E1,5.706847E0,2.0357443E1,1.0543948E0,2.0129554E0,2.0947175E0,2.0305812E0,2.8060621E1,1.2762042E1,2.5854893E0,5.956292E0],"tree_param":{"num_deleted":"0","num_feature":"19","num_nodes":"85","size_leaf_vector":"1"}},{"base_weights":[2.1681175E-2,2.3078611E-2,-1.0400722E0,5.1440015E-3,2.609705E-1,-8.997436E-3,2.886637E-1,3.642256E-1,-1.5512547E-1,-2.6082683E-2,2.4171315E-1,3.262752E-1,-6.919478E-1,5.165245E-1,1.2741683E-1,7.674159E-2,-1.3154272E0,6.752802E-2,-7.303453E-2,-4.7556964E-1,2.6604933E-1,5.630874E-3,6.863539E-1,-5.3214717E-1,5.4079837E-1,-1.778857E-1,4.763498E-1,-1.5729833E-1,7.091908E-1,-7.593519E-1,1.3300726E-1,-3.9520796E-2,5.1338334E-2,-1.08816475E-1,-1.163642E-2,-4.9173422E-2,1.0642763E-1,4.121227E-2,-1.528306E0,-1.2987819E-2,2.543799E-1,-1.3265418E-1,1.7199174E-1,-2.5146743E-3,-1.1090063E0,1.789962E-1,-6.904825E-1,-1.5486892E-2,-6.9262385E-1,2.640723E-1,3.8353596E-2],"categories":[],"categories_nodes":[],"categories_segments":[],"categories_sizes":[],"default_left":[0,0,0,0,0,0,0,0,0,0,0,0,0,0,0,0,0,0,0,0,0,0,0,0,0,0,0,0,0,0,0,0,0,0,0,0,0,0,0,0,0,0,0,0,0,0,0,0,0,0,0],"id":16,"left_children":[1,3,-1,5,7,9,11,13,15,17,19,21,-1,23,25,27,29,31,33,-1,35,37,39,-1,41,43,45,47,49,-1,-1,-1,-1,-1,-1,-1,-1,-1,-1,-1,-1,-1,-1,-1,-1,-1,-1,-1,-1,-1,-1],"loss_changes":[2.4375713E1,2.1257124E1,0E0,1.8583502E1,1.5063255E1,1.8918442E1,2.2245966E1,1.0037693E1,1.8972437E1,1.8176332E1,1.2950041E1,2.5157978E1,0E0,1.0419708E1,1.1907065E1,8.904892E0,2.622045E1,2.8542194E1,2.7306309E1,0E0,1.0697161E1,7.883166E1,1.2138157E1,0E0,5.658451E0,3.5706314E1,1.87716E1,9.925272E0,1.5011148E0,0E0,0E0,0E0,0E0,0E0,0E0,0E0,0E0,0E0,0E0,0E0,0E0,0E0,0E0,0E0,0E0,0E0,0E0,0E0,0E0,0E0,0E0],"parents":[2147483647,0,0,1,1,3,3,4,4,5,5,6,6,7,7,8,8,9,9,10,10,11,11,13,13,14,14,15,15,16,16,17,17,18,18,20,20,21,21,22,22,24,24,25,25,26,26,27,27,28,28],"right_children":[2,4,-1,6,8,10,12,14,16,18,20,22,-1,24,26,28,30,32,34,-1,36,38,40,-1,42,44,46,48,50,-1,-1,-1,-1,-1,-1,-1,-1,-1,-1,-1,-1,-1,-1,-1,-1,-1,-1,-1,-1,-1,-1],"split_conditions":[8.773557E0,1.8856409E0,-1.0400722E0,5.212353E0,8.216266E-1,3.8453627E0,9.798676E-1,5.695696E-1,1.1865827E0,-5.473174E-1,-1.0986407E0,-3.965619E-1,-6.919478E-1,-1.7586511E0,1.4855034E0,4.3354865E-2,1.925598E0,-8.2717353E-1,-1.1328899E0,-4.7556964E-1,-1.0758619E0,-5.861691E-1,-3.5639316E-1,-5.3214717E-1,-1.5731218E0,2.2470853E0,4.2578438E-1,2.5614552E0,3.0637193E-1,-7.593519E-1,1.3300726E-1,-3.9520796E-2,5.1338334E-2,-1.08816475E-1,-1.163642E-2,-4.9173422E-2,1.0642763E-1,4.121227E-2,-1.528306E0,-1.2987819E-2,2.543799E-1,-1.3265418E-1,1.7199174E-1,-2.5146743E-3,-1.1090063E0,1.789962E-1,-6.904825E-1,-1.5486892E-2,-6.9262385E-1,2.640723E-1,3.8353596E-2],"split_indices":[10,2,0,15,5,18,2,8,14,3,1,2,0,4,3,8,6,6,8,0,4,2,6,0,8,1,5,13,7,0,0,0,0,0,0,0,0,0,0,0,0,0,0,0,0,0,0,0,0,0,0],"split_type":[0,0,0,0,0,0,0,0,0,0,0,0,0,0,0,0,0,0,0,0,0,0,0,0,0,0,0,0,0,0,0,0,0,0,0,0,0,0,0,0,0,0,0,0,0,0,0,0,0,0,0],"sum_hessian":[4.982652E3,4.98165E3,1.0021328E0,4.6333633E3,3.4828644E2,4.4141616E3,2.1920193E2,2.7914154E2,6.914491E1,4.133379E3,2.8078262E2,2.1693222E2,2.2697155E0,1.6916513E2,1.0997641E2,5.840708E1,1.0737825E1,1.3805184E3,2.7528604E3,2.847907E0,2.7793472E2,1.15286804E2,1.0164542E2,1.0181957E0,1.6814694E2,5.8916767E1,5.105964E1,4.317961E1,1.5227471E1,6.08941E0,4.6484156E0,4.7213715E2,9.083813E2,2.900202E2,2.46284E3,4.739088E1,2.3054384E2,1.1333225E2,1.9545473E0,1.8561024E1,8.30844E1,4.979245E0,1.631677E2,5.7165443E1,1.7513223E0,4.9692825E1,1.3668143E0,4.2134056E1,1.0455564E0,1.1368388E1,3.8590837E0],"tree_param":{"num_deleted":"0","num_feature":"19","num_nodes":"51","size_leaf_vector":"1"}},{"base_weights":[1.6185666E-2,-1.7128771E-3,2.2006069E-1,-1.248599E-2,3.5779643E-1,1.3854998E-1,5.08713E-1,2.5005417E-3,-2.7689406E-1,5.2215266E-1,2.6683867E-2,4.8952445E-1,2.8690394E-2,5.887839E-1,-6.339228E-1,-4.9419586E-2,8.5781574E-2,-1.7304193E0,-2.0058995E-1,6.013454E-1,-1.6357381E0,-2.837393E0,3.1216118E-1,5.636268E-1,-9.7425294E-1,-1.1774446E-1,3.8397348E-1,3.7367237E-1,8.3037835E-1,-1.0043371E-1,1.07609205E-1,9.7097605E-2,-7.1004575E-1,1.6639225E-1,-1.067697E0,6.4920604E-1,-7.4667805E-1,-9.8871654E-1,1.7213175E-1,-1.641815E0,1.916976E-1,5.5514365E-1,-6.474691E-1,-3.302478E-1,6.057344E-1,-5.850566E-1,1.7175508E-1,-3.9898645E-2,-2.1619005E0,-8.051867E-1,4.6767113E-1,5.1289237E-1,-5.156632E-1,8.8603824E-1,-8.992381E-2,-2.4219504E-2,-9.585874E-1,1.312357E-1,-1.2030656E-2,3.0185632E-2,-7.970836E-1,-1.7624477E-1,9.7442605E-2,-2.5007296E-1,-1.7208242E0,8.4019214E-2,2.3849346E-1,-4.9149108E-1,1.6206536E-1,-6.2220104E-2,2.2111501E-1,2.0333563E-1,-7.201868E-1,1.9237508E-1,-2.0747304E-1,6.938743E-2,-1.7162958E-1,-1.7247617E0,8.705978E-2,1.9514312E-1,-3.4155875E-1,1.8107942E-1,-3.007079E-1,2.8952968E-1,4.879512E-2],"categories":[],"categories_nodes":[],"categories_segments":[],"categories_sizes":[],"default_left":[0,0,0,0,0,0,0,0,0,0,0,0,0,0,0,0,0,0,0,0,0,0,0,0,0,0,0,0,0,0,0,0,0,0,0,0,0,0,0,0,0,0,0,0,0,0,0,0,0,0,0,0,0,0,0,0,0,0,0,0,0,0,0,0,0,0,0,0,0,0,0,0,0,0,0,0,0,0,0,0,0,0,0,0,0],"id":17,"left_children":[1,3,5,7,9,11,13,15,17,19,21,23,25,27,-1,29,31,-1,33,35,37,39,41,43,45,47,49,51,53,55,57,59,-1,61,63,65,67,-1,-1,-1,-1,69,71,-1,73,-1,-1,75,77,-1,79,81,-1,83,-1,-1,-1,-1,-1,-1,-1,-1,-1,-1,-1,-1,-1,-1,-1,-1,-1,-1,-1,-1,-1,-1,-1,-1,-1,-1,-1,-1,-1,-1,-1],"loss_changes":[1.8021406E1,1.7591738E1,9.307383E0,1.7474806E1,7.1777077E0,1.2023166E1,1.9590612E1,1.8053566E1,9.7956215E1,1.6066216E1,3.7589386E1,8.61495E0,1.24702635E1,4.137579E0,0E0,2.0613388E1,4.4729256E1,0E0,7.4748245E1,6.024597E0,1.4336363E1,4.168173E1,1.0087982E1,5.6717186E0,7.078534E0,2.6947369E1,1.9214214E1,1.4600809E1,2.7498188E0,1.181404E2,3.0767405E1,1.5753813E1,0E0,1.99583E1,7.1530716E1,4.268223E0,4.796825E0,0E0,0E0,0E0,0E0,4.845605E0,2.2285229E1,0E0,3.6822834E0,0E0,0E0,2.3898928E1,5.632453E1,0E0,2.098117E1,6.779601E0,0E0,2.0101414E0,0E0,0E0,0E0,0E0,0E0,0E0,0E0,0E0,0E0,0E0,0E0,0E0,0E0,0E0,0E0,0E0,0E0,0E0,0E0,0E0,0E0,0E0,0E0,0E0,0E0,0E0,0E0,0E0,0E0,0E0,0E0],"parents":[2147483647,0,0,1,1,2,2,3,3,4,4,5,5,6,6,7,7,8,8,9,9,10,10,11,11,12,12,13,13,15,15,16,16,18,18,19,19,20,20,21,21,22,22,23,23,24,24,25,25,26,26,27,27,28,28,29,29,30,30,31,31,33,33,34,34,35,35,36,36,41,41,42,42,44,44,47,47,48,48,50,50,51,51,53,53],"right_children":[2,4,6,8,10,12,14,16,18,20,22,24,26,28,-1,30,32,-1,34,36,38,40,42,44,46,48,50,52,54,56,58,60,-1,62,64,66,68,-1,-1,-1,-1,70,72,-1,74,-1,-1,76,78,-1,80,82,-1,84,-1,-1,-1,-1,-1,-1,-1,-1,-1,-1,-1,-1,-1,-1,-1,-1,-1,-1,-1,-1,-1,-1,-1,-1,-1,-1,-1,-1,-1,-1,-1],"split_conditions":[1.393888E0,2.4615736E0,1.8856409E0,1.1330853E0,-3.6590013E-1,-7.203064E-1,1.7808179E0,4.0278998E-1,-1.520167E0,1.5225332E0,-4.6460274E-1,2.4615736E0,6.331191E-1,1.4855034E0,-6.339228E-1,7.1303433E-1,2.7581108E0,-1.7304193E0,4.4627973E-1,3.8453627E0,3.8453627E0,4.4724627E0,8.0521905E-1,-2.5046287E0,2.0533462E0,3.9205354E-1,-9.6807307E-1,1.235138E0,2.6557813E0,5.7985777E-1,-3.758446E-1,6.9608006E0,-7.1004575E-1,-8.3924526E-1,2.5614552E0,-1.1575847E0,1.0362158E0,-9.8871654E-1,1.7213175E-1,-1.641815E0,1.916976E-1,-5.546807E-1,-4.406357E-1,-3.302478E-1,-6.545371E-2,-5.850566E-1,1.7175508E-1,-1.0256373E0,9.7118133E-1,-8.051867E-1,1.1507447E0,2.5675E0,-5.156632E-1,1.5188197E0,-8.992381E-2,-2.4219504E-2,-9.585874E-1,1.312357E-1,-1.2030656E-2,3.0185632E-2,-7.970836E-1,-1.7624477E-1,9.7442605E-2,-2.5007296E-1,-1.7208242E0,8.4019214E-2,2.3849346E-1,-4.9149108E-1,1.6206536E-1,-6.2220104E-2,2.2111501E-1,2.0333563E-1,-7.201868E-1,1.9237508E-1,-2.0747304E-1,6.938743E-2,-1.7162958E-1,-1.7247617E0,8.705978E-2,1.9514312E-1,-3.4155875E-1,1.8107942E-1,-3.007079E-1,2.8952968E-1,4.879512E-2],"split_indices":[1,9,2,1,5,3,12,4,3,10,6,9,6,3,0,2,6,0,4,18,18,17,1,3,1,6,2,3,3,2,1,10,0,6,13,5,1,0,0,0,0,1,7,0,7,0,0,5,3,0,2,1,0,8,0,0,0,0,0,0,0,0,0,0,0,0,0,0,0,0,0,0,0,0,0,0,0,0,0,0,0,0,0,0,0],"split_type":[0,0,0,0,0,0,0,0,0,0,0,0,0,0,0,0,0,0,0,0,0,0,0,0,0,0,0,0,0,0,0,0,0,0,0,0,0,0,0,0,0,0,0,0,0,0,0,0,0,0,0,0,0,0,0,0,0,0,0,0,0,0,0,0,0,0,0,0,0,0,0,0,0,0,0,0,0,0,0,0,0,0,0,0,0],"sum_hessian":[4.9375327E3,4.539954E3,3.9757883E2,4.408804E3,1.3114966E2,3.1118518E2,8.639363E1,4.1732563E3,2.3554778E2,8.725929E1,4.3890366E1,7.336049E1,2.3782469E2,8.458576E1,1.8078706E0,2.5708875E3,1.602369E3,2.2059376E0,2.3334184E2,8.486611E1,2.3931873E0,3.168E0,4.0722366E1,7.041096E1,2.9495387E0,1.68885E2,6.8939705E1,4.6092487E1,3.8493275E1,1.9407532E3,6.301342E2,1.5959658E3,6.4032025E0,1.6452058E2,6.8821266E1,8.245693E1,2.4091728E0,1.0858167E0,1.3073705E0,1.4753413E0,1.6926585E0,3.2830933E1,7.8914304E0,1.1169338E0,6.929402E1,1.648563E0,1.3009758E0,1.6367155E2,5.213443E0,1.005777E0,6.793393E1,4.3924995E1,2.1674905E0,3.689227E1,1.6010033E0,1.929496E3,1.1257191E1,1.9429878E2,4.3583545E2,1.5948901E3,1.0756716E0,2.8098148E1,1.3642242E2,6.665696E1,2.164305E0,2.417055E1,5.8286385E1,1.2618407E0,1.1473321E0,6.2964244E0,2.653451E1,4.843496E0,3.0479345E0,6.793977E1,1.3542478E0,1.0879759E2,5.4873962E1,1.570813E0,3.6426296E0,6.152646E1,6.407469E0,4.201175E1,1.913246E0,3.295627E1,3.9360027E0],"tree_param":{"num_deleted":"0","num_feature":"19","num_nodes":"85","size_leaf_vector":"1"}},{"base_weights":[1.3267945E-2,3.2087836E-1,4.2523425E-3,-4.1448396E-2,4.6878222E-1,-6.2332228E-2,4.1917615E-2,-2.0927825E0,2.949409E-1,8.823167E-2,6.834601E-1,-1.1084677E0,-4.022632E-2,2.3641486E-1,1.3831254E-2,-4.0381236E0,1.3703798E-1,4.629753E-1,-8.3722264E-1,5.7518196E-1,-8.8931125E-1,7.3569185E-1,-2.1465367E-1,-1.4375226E0,2.5947702E-1,-1.0821982E-1,1.452293E-1,9.2865594E-2,6.2627935E-1,-7.111486E-1,2.4678268E-2,-4.4305906E-1,-1.4973646E0,5.9049547E-1,-2.8794476E-1,-9.2496794E-1,1.8250883E-1,7.2378194E-1,-2.8186297E-1,-1.489002E0,3.307471E-1,2.3544115E-1,8.738846E-1,-5.4984266E-1,2.515691E-1,-8.917481E-2,-4.5791388E0,6.1208075E-1,-6.090995E-3,1.974931E-1,-1.2646078E0,-1.314073E0,8.0465573E-1,3.348979E-2,-2.1537886E0,2.5976098E-1,-1.957862E-3,-4.787587E-2,2.1055362E-1,-2.445247E-3,2.4425502E-1,-2.9519066E-1,2.2911397E-1,-7.6331973E-1,2.0732853E-1,3.0011135E-1,2.0482829E-1,-1.5900126E-2,-2.6043844E-1,-3.8423184E-1,-1.6840607E0,2.14423E-1,-6.0199475E-1,-4.843328E-1,1.7924808E-2,8.875822E-2,-1.22783236E-1,-1.1409812E0,-1.0561531E-2,1.20103925E-1,-6.7864317E-1,3.1884003E-1,9.91397E-2,1.5837175E-1,-5.026558E-1,-1.1103826E0,2.0141477E-2,1.01326495E-1,-6.048851E-1,-5.66904E-1,3.2380417E-3],"categories":[],"categories_nodes":[],"categories_segments":[],"categories_sizes":[],"default_left":[0,0,0,0,0,0,0,0,0,0,0,0,0,0,0,0,0,0,0,0,0,0,0,0,0,0,0,0,0,0,0,0,0,0,0,0,0,0,0,0,0,0,0,0,0,0,0,0,0,0,0,0,0,0,0,0,0,0,0,0,0,0,0,0,0,0,0,0,0,0,0,0,0,0,0,0,0,0,0,0,0,0,0,0,0,0,0,0,0,0,0],"id":18,"left_children":[1,3,5,7,9,11,13,15,17,19,21,23,25,27,29,31,-1,33,35,37,39,41,-1,43,-1,45,47,49,51,53,55,-1,-1,57,-1,-1,-1,59,-1,-1,61,63,65,-1,-1,67,69,71,73,75,77,79,81,83,85,87,89,-1,-1,-1,-1,-1,-1,-1,-1,-1,-1,-1,-1,-1,-1,-1,-1,-1,-1,-1,-1,-1,-1,-1,-1,-1,-1,-1,-1,-1,-1,-1,-1,-1,-1],"loss_changes":[1.3576124E1,7.4892445E0,1.1933847E1,2.9133085E1,8.032892E0,3.9714294E1,1.6598839E1,3.133273E1,7.3084536E0,1.806574E1,5.143551E0,2.4321362E1,2.1259478E1,2.1400417E1,2.090976E1,1.1089859E0,0E0,6.4309926E0,1.8296755E1,6.357378E0,6.454231E1,4.0393333E0,0E0,2.9280617E1,0E0,1.0460705E2,3.1962246E1,4.0219242E1,3.671132E1,4.217949E1,1.639699E1,0E0,0E0,2.641199E0,0E0,0E0,0E0,1.5638466E0,0E0,0E0,6.8284507E0,2.0327856E1,4.7122574E-1,0E0,0E0,3.458795E1,1.0590981E1,3.1208439E1,3.638006E1,1.5767595E1,6.3139683E1,1.5619378E1,1.1272774E1,2.3561207E1,4.6163544E1,4.7990585E1,5.6660168E1,0E0,0E0,0E0,0E0,0E0,0E0,0E0,0E0,0E0,0E0,0E0,0E0,0E0,0E0,0E0,0E0,0E0,0E0,0E0,0E0,0E0,0E0,0E0,0E0,0E0,0E0,0E0,0E0,0E0,0E0,0E0,0E0,0E0,0E0],"parents":[2147483647,0,0,1,1,2,2,3,3,4,4,5,5,6,6,7,7,8,8,9,9,10,10,11,11,12,12,13,13,14,14,15,15,17,17,18,18,19,19,20,20,21,21,23,23,25,25,26,26,27,27,28,28,29,29,30,30,33,33,37,37,40,40,41,41,42,42,45,45,46,46,47,47,48,48,49,49,50,50,51,51,52,52,53,53,54,54,55,55,56,56],"right_children":[2,4,6,8,10,12,14,16,18,20,22,24,26,28,30,32,-1,34,36,38,40,42,-1,44,-1,46,48,50,52,54,56,-1,-1,58,-1,-1,-1,60,-1,-1,62,64,66,-1,-1,68,70,72,74,76,78,80,82,84,86,88,90,-1,-1,-1,-1,-1,-1,-1,-1,-1,-1,-1,-1,-1,-1,-1,-1,-1,-1,-1,-1,-1,-1,-1,-1,-1,-1,-1,-1,-1,-1,-1,-1,-1,-1],"split_conditions":[-2.037387E0,-1.1678619E0,-2.5663334E-1,-9.5119125E-1,-2.2085092E0,-1.6835839E0,-1.0563931E0,2.0085392E0,-1.2622333E0,-1.0016913E0,1.3858093E-1,8.421766E-1,8.839972E-2,4.2578438E-1,-1.7282083E0,-2.5663334E-1,1.3703798E-1,-3.6429477E-1,1.4087617E0,6.4943564E-1,-7.518113E-1,-5.1301867E-1,-2.1465367E-1,2.9327853E0,2.5947702E-1,5.2176565E-2,-2.4898665E-1,2.9942125E-2,-1.2807802E0,-1.5008962E0,-5.076992E-1,-4.4305906E-1,-1.4973646E0,-1.3854203E0,-2.8794476E-1,-9.2496794E-1,1.8250883E-1,-1.6239239E0,-2.8186297E-1,-1.489002E0,-2.5663334E-1,2.9942125E-2,-3.5904464E-1,-5.4984266E-1,2.515691E-1,-2.2137903E-2,-5.0577337E-1,1.0974164E0,5.7112113E-2,-9.1829486E-2,-3.1846136E-2,5.577318E-1,-7.306165E-1,1.0855215E0,1.877206E0,1.7452586E0,-4.9842176E-1,-4.787587E-2,2.1055362E-1,-2.445247E-3,2.4425502E-1,-2.9519066E-1,2.2911397E-1,-7.6331973E-1,2.0732853E-1,3.0011135E-1,2.0482829E-1,-1.5900126E-2,-2.6043844E-1,-3.8423184E-1,-1.6840607E0,2.14423E-1,-6.0199475E-1,-4.843328E-1,1.7924808E-2,8.875822E-2,-1.22783236E-1,-1.1409812E0,-1.0561531E-2,1.20103925E-1,-6.7864317E-1,3.1884003E-1,9.91397E-2,1.5837175E-1,-5.026558E-1,-1.1103826E0,2.0141477E-2,1.01326495E-1,-6.048851E-1,-5.66904E-1,3.2380417E-3],"split_indices":[3,2,9,4,3,1,2,9,2,2,6,2,7,5,4,9,0,7,8,9,2,7,0,5,0,7,8,5,8,8,7,0,0,2,0,0,0,6,0,0,9,5,8,0,0,7,2,3,8,7,3,5,6,5,5,5,7,0,0,0,0,0,0,0,0,0,0,0,0,0,0,0,0,0,0,0,0,0,0,0,0,0,0,0,0,0,0,0,0,0,0],"split_type":[0,0,0,0,0,0,0,0,0,0,0,0,0,0,0,0,0,0,0,0,0,0,0,0,0,0,0,0,0,0,0,0,0,0,0,0,0,0,0,0,0,0,0,0,0,0,0,0,0,0,0,0,0,0,0,0,0,0,0,0,0,0,0,0,0,0,0,0,0,0,0,0,0,0,0,0,0,0,0,0,0,0,0,0,0,0,0,0,0,0,0],"sum_hessian":[4.8948003E3,1.3838948E2,4.756411E3,4.0324497E1,9.806498E1,1.7182457E3,3.038165E3,4.9454374E0,3.537906E1,3.5877472E1,6.2187504E1,3.453996E1,1.6837058E3,3.824301E2,2.655735E3,2.4739544E0,2.471483E0,3.1321438E1,4.057621E0,2.4222803E1,1.1654671E1,6.0406307E1,1.7811971E0,2.9836409E1,4.703552E0,1.2323181E3,4.5138766E2,2.804177E2,1.0201243E2,3.8197155E1,2.6175378E3,1.3623737E0,1.1115806E0,2.9281965E1,2.039474E0,1.1453054E0,2.9123158E0,2.2534279E1,1.6885241E0,1.9788299E0,9.675841E0,1.366033E1,4.674598E1,2.5587414E1,4.2489934E0,1.2281067E3,4.2114844E0,1.0974838E2,3.4163928E2,2.6114444E2,1.9273241E1,8.052427E0,9.396E1,2.5837542E1,1.2359614E1,2.6550613E2,2.3520317E3,3.729033E0,2.5552933E1,2.5772738E0,1.9957005E1,2.0817907E0,7.5940504E0,1.2782092E0,1.2382121E1,2.5581728E1,2.116425E1,1.1746254E3,5.3481266E1,1.5397832E0,2.6717012E0,1.0630784E2,3.4405406E0,1.2510543E1,3.2912875E2,2.251554E2,3.5989044E1,5.605186E0,1.36680565E1,3.0730615E0,4.979366E0,6.0035816E1,3.3924183E1,2.057601E1,5.2615323E0,6.8913493E0,5.4682655E0,2.5753278E2,7.973357E0,1.4793478E1,2.3372383E3],"tree_param":{"num_deleted":"0","num_feature":"19","num_nodes":"91","size_leaf_vector":"1"}},{"base_weights":[1.0918434E-2,3.8800845E-1,4.4939974E-3,4.7895145E-1,-1.0160574E0,-1.2712972E-2,1.5298317E-1,5.459461E-1,-4.7858253E-1,-2.2945061E-2,3.3133903E-1,5.8593035E-1,1.112963E-1,2.6108433E-2,6.9620466E-1,-2.0134721E-2,-1.5310253E0,-3.1309438E-1,5.292388E-1,6.548676E-1,-3.20614E-1,-1.861321E0,1.362835E-1,5.501083E-1,-6.563183E-1,-1.8599246E-1,8.0756027E-1,1.2251018E-3,-2.019918E-1,8.1343904E-2,-6.145312E-1,4.659935E-2,-1.2197449E0,6.215027E-1,-5.246357E-1,1.01150446E-1,7.9115534E-1,-8.58701E-2,-8.0326426E-1,2.6717797E-1,-2.695362E-3,-2.1982138E-1,2.2975501E-1,-7.742767E-1,1.8291387E-1,2.687388E-1,5.3530917E-2,1.3409762E-3,-6.2666804E-1,2.837226E-3,-2.194906E-1,9.88112E-2,-1.131652E0,2.3830225E-1,7.170135E-2,-9.2421144E-1,1.554215E-1,-7.9666495E-1,2.4034403E-1,-1.8813234E-2,2.6096988E-1,1.1821015E-1,-8.943861E-2,-5.6740794E-2,1.0310715E-1],"categories":[],"categories_nodes":[],"categories_segments":[],"categories_sizes":[],"default_left":[0,0,0,0,0,0,0,0,0,0,0,0,0,0,0,0,0,0,0,0,0,0,0,0,0,0,0,0,0,0,0,0,0,0,0,0,0,0,0,0,0,0,0,0,0,0,0,0,0,0,0,0,0,0,0,0,0,0,0,0,0,0,0,0,0],"id":19,"left_children":[1,3,5,7,-1,9,11,13,-1,15,17,19,21,23,25,27,29,31,33,35,-1,37,39,41,-1,43,45,47,49,-1,-1,51,-1,53,55,57,59,-1,-1,61,63,-1,-1,-1,-1,-1,-1,-1,-1,-1,-1,-1,-1,-1,-1,-1,-1,-1,-1,-1,-1,-1,-1,-1,-1],"loss_changes":[1.1720085E1,2.9443405E1,1.21601715E1,